{"0_weights": [[-0.6717925667762756, 0.3396420478820801, 0.23733928799629211, -0.17652325332164764, 0.5187389850616455, -0.5116761922836304, -0.14826180040836334, 0.2637566924095154, -0.2740585207939148, -0.033650953322649, 0.8073602318763733, -0.3931848108768463, -0.21914920210838318, 0.13477864861488342, 0.27705660462379456, 0.07080202549695969], [-0.23035703599452972, 0.45250797271728516, 0.47274404764175415, -0.1686537265777588, -0.7250575423240662, -0.03813912346959114, 0.7635252475738525, -0.4828992784023285, 0.5272635221481323, 0.6026402711868286, 0.05900554358959198, -0.40593183040618896, 0.054035838693380356, 0.8332450985908508, 0.1950864940881729, -0.40687304735183716], [-0.584428071975708, -0.12525466084480286, 0.17775186896324158, -0.6261105537414551, 0.010868978686630726, 0.609376847743988, 0.25590837001800537, -0.04381841421127319, -0.19887401163578033, -0.2669485807418823, -0.747622549533844, 0.10174865275621414, -0.09085286408662796, -0.25055187940597534, 0.8965158462524414, 0.2581862509250641], [-0.0691559761762619, 0.6666252613067627, -0.2659950256347656, 0.6324756145477295, -0.42484137415885925, 0.048435039818286896, 0.12646940350532532, 0.4604625403881073, -0.4917648434638977, 0.402413547039032, -0.6160022616386414, 0.897314727306366, 0.2731764018535614, -0.2038700431585312, 0.2560257911682129, -0.08028029650449753], [0.5984236598014832, 0.18883082270622253, -0.2664823830127716, 0.5133329033851624, -0.2865928113460541, -0.05906166881322861, 0.056732457131147385, 0.2238684892654419, 0.8472151756286621, 0.7211897373199463, 0.8251641988754272, 0.1746455281972885, 0.7159603834152222, -0.5874499678611755, 0.36104756593704224, -0.2941347658634186], [0.44210538268089294, -0.40143883228302, -0.01153283566236496, 0.13190306723117828, 0.6078603863716125, 0.6197551488876343, 0.11995676159858704, -0.1563015580177307, 0.4403377175331116, -0.13446177542209625, 0.3373825252056122, 0.47625988721847534, 0.3906032145023346, 0.7962184548377991, 0.5012938976287842, -0.8816807270050049], [-0.19011381268501282, 0.6073076725006104, -0.2363971769809723, -0.10157094895839691, -0.3183506727218628, 0.4447697103023529, -0.5032985210418701, -0.5239364504814148, -1.0709669589996338, -0.6723340749740601, 0.5897604823112488, -0.31760862469673157, 0.10470583289861679, 0.43821197748184204, -0.2133687436580658, 0.5389955639839172], [0.8760310411453247, -0.4844430685043335, 0.29448097944259644, -0.17017553746700287, 0.02314811199903488, 0.23379307985305786, 0.5047897696495056, 0.46984773874282837, 0.20327135920524597, 0.35690170526504517, 0.24870121479034424, 0.4049953520298004, -0.8449708223342896, 0.0166496429592371, 0.03889688476920128, 0.4432884752750397], [0.1396883726119995, 0.1434141844511032, 0.02879304811358452, -0.286186546087265, 0.21744553744792938, 0.0987839475274086, 0.1360323429107666, -0.005074045620858669, 0.39275607466697693, -0.6323556303977966, -0.04525642842054367, -0.42261558771133423, -0.5684903860092163, -0.0277460515499115, -0.21268866956233978, -0.3490763306617737], [-0.11215779185295105, -0.0015944476472213864, -0.18336036801338196, 0.20542894303798676, -0.3447638154029846, -0.0331992581486702, 0.414885014295578, -0.10898473858833313, 0.2502249777317047, 0.21236403286457062, 0.08840568363666534, -0.005524738226085901, -0.27132150530815125, 0.27167341113090515, 0.12587802112102509, -0.10460666567087173], [0.02532281167805195, 0.1296636015176773, -0.05785323679447174, -0.41602274775505066, 0.004502927418798208, 0.170403391122818, -0.16441649198532104, -0.3984384536743164, -0.06662195175886154, 0.16811324656009674, -0.03882778808474541, 0.011304031126201153, -0.0934843122959137, -0.2820456027984619, -0.28711435198783875, 0.0788334459066391]], "1_weights": [[-0.1557643711566925, -3.1806163787841797, 0.7076184749603271, -0.04906991869211197, 0.17180298268795013, 0.9349212646484375, 0.24409393966197968, -0.30260929465293884, 0.5014002919197083, 0.27403774857521057, -0.1480133831501007, 0.6282224059104919, 0.558564305305481, 0.2211194485425949, -0.13597354292869568, -0.15067674219608307], [-0.254925012588501, 0.7971034646034241, 0.258417546749115, -0.3491896688938141, -0.23221474885940552, -0.2783331871032715, 0.06176408752799034, -0.10650135576725006, -0.03083532303571701, 0.1594010591506958, 0.5441455245018005, 0.0055147623643279076, 0.19501887261867523, -0.07561585307121277, -0.8739880919456482, 0.4950961172580719], [0.057394858449697495, -0.17748279869556427, -0.30891895294189453, -0.20177948474884033, -0.18652917444705963, 0.013480628840625286, 0.19890180230140686, 0.5492008328437805, -0.1380699723958969, 0.5028179883956909, 0.22513478994369507, 0.24583156406879425, -0.48726725578308105, -0.229404017329216, -0.32424813508987427, 0.560267984867096], [0.47944289445877075, -0.36290252208709717, -0.016280362382531166, 0.17365559935569763, 0.16744863986968994, 0.2123025804758072, -0.7717679738998413, -0.010530377738177776, 0.12558630108833313, -0.02706141024827957, -0.39257973432540894, -0.21268947422504425, 0.13979753851890564, 0.8005363941192627, -0.7273139357566833, -0.19714410603046417], [0.0011790012940764427, 0.24477165937423706, -0.3980828523635864, -1.1080372333526611, 0.21041181683540344, 0.18931761384010315, 0.8488860726356506, 0.49219128489494324, -0.6996926665306091, 0.658487856388092, 0.5520731210708618, 0.6929339170455933, -0.26943862438201904, -0.05675864219665527, -0.4201979339122772, 0.290149062871933], [0.4697199761867523, -0.04025562107563019, 0.12406521290540695, 0.46711668372154236, 0.034797102212905884, 0.39345112442970276, -0.05272529274225235, 0.39991286396980286, -0.5624474287033081, -0.5922325849533081, -0.3539597690105438, -0.30454251170158386, 0.36135056614875793, 0.13114169239997864, -0.23655405640602112, -0.1433943659067154], [0.27073195576667786, 0.03727848082780838, -0.03119690716266632, 0.11908797919750214, -0.2928660213947296, 0.0763435885310173, -0.6461767554283142, 0.008436894044280052, 0.013389592990279198, -0.2767837345600128, -0.2746182978153229, -1.2928168773651123, 0.2544748783111572, 0.17278195917606354, 0.034421540796756744, 0.040187958627939224], [-0.34363964200019836, -0.09136241674423218, 0.579892635345459, 0.32429519295692444, 0.278190940618515, -0.3655966818332672, 0.3240082859992981, -0.5140051245689392, -0.20846322178840637, 0.43866685032844543, -0.3958908021450043, 0.24258089065551758, 0.34544435143470764, 0.22199450433254242, -0.07960642129182816, -0.3426479399204254], [0.23645134270191193, 0.21173058450222015, 0.6799336671829224, 0.1342439204454422, 0.27876701951026917, 0.49961501359939575, -1.2955759763717651, 0.3526465594768524, 0.44338300824165344, 0.22655166685581207, 0.12318098545074463, -0.4617672562599182, 0.558079719543457, 0.621054470539093, 0.11414631456136703, 0.026806270703673363], [0.22005921602249146, 0.06128532066941261, -0.1695602983236313, -0.0758327916264534, -0.19815434515476227, -0.1657496839761734, 0.9866253137588501, -0.15328697860240936, -0.30216047167778015, 0.34240293502807617, 0.5033326148986816, 0.1137770339846611, -0.49249717593193054, 0.14639240503311157, 0.18737173080444336, 0.09603183716535568], [-0.5521222352981567, -0.4022718667984009, 0.08594092726707458, -0.0826634094119072, 0.7200899124145508, -0.024340061470866203, 0.0077759381383657455, 0.13963831961154938, -0.4746720492839813, -0.41042643785476685, 0.38944560289382935, 0.4602322280406952, 0.22163935005664825, 0.45417851209640503, -0.01559633668512106, 0.6560009717941284], [0.028318937867879868, 1.426157832145691, 0.20987331867218018, -0.526746928691864, -0.41191044449806213, 0.11260516941547394, 0.41708338260650635, 0.09190972149372101, -0.1792323738336563, 0.4088990092277527, 0.6950547695159912, 0.43946951627731323, 0.02261771820485592, -0.09116587787866592, 0.028307028114795685, 0.644070565700531], [0.11665616929531097, -0.6326618194580078, 0.22111216187477112, 0.40154948830604553, 0.33327585458755493, 0.05628497898578644, -0.7079916596412659, 0.12164071202278137, 0.20023995637893677, -0.3062167465686798, -0.6396452188491821, -0.43290162086486816, 0.547734797000885, 0.5912431478500366, 0.391726016998291, -0.3314860761165619], [-0.08409039676189423, 0.05032996088266373, -0.1741124987602234, 0.5712236166000366, 0.04009658843278885, -0.23215308785438538, -0.29004040360450745, 0.945865273475647, 0.5945077538490295, 0.06294085085391998, -0.7566637992858887, -0.1946558654308319, -0.15021191537380219, -0.23834170401096344, 0.2568969130516052, 0.4010965824127197], [-0.07109100371599197, 0.17864245176315308, 0.09427797049283981, 0.0482182614505291, -0.18684494495391846, 0.4590981900691986, 0.18856966495513916, 0.14739388227462769, 0.00863687600940466, 0.34042033553123474, 0.5095850229263306, -0.2566845715045929, 0.22141201794147491, -0.12377604842185974, 0.5601522922515869, 0.08038610965013504], [-0.6783729791641235, 0.10639192909002304, 0.20466643571853638, 0.4350565969944, -0.5618721842765808, -0.2491166889667511, -1.0573804378509521, 0.5099782347679138, 0.4213636517524719, 0.6249780654907227, -0.09547250717878342, -2.9592936038970947, -0.11143141239881516, -0.1999455988407135, -0.16663546860218048, 0.9000585079193115]], "2_weights": [[-0.2627183198928833, -0.06848528236150742, 0.22461941838264465], [1.1592323780059814, 1.8409723043441772, 2.7087242603302], [-0.3129205107688904, -0.5585303902626038, -0.36567965149879456], [0.39297324419021606, 0.2390650361776352, -0.4675825238227844], [0.8807727098464966, 0.24900572001934052, 0.29185041785240173], [-0.2629358768463135, -0.548656165599823, -0.8153352737426758], [3.162754535675049, 3.274521827697754, 3.305976629257202], [0.20248141884803772, 0.354572057723999, -0.03286731615662575], [0.14895682036876678, 0.4281318187713623, 1.1785106658935547], [0.10864309966564178, 0.5204476118087769, 0.5495135188102722], [0.6111298203468323, 1.5253578424453735, 2.470366954803467], [0.9905053377151489, 2.3257811069488525, 2.1550235748291016], [-0.5958892703056335, -0.4043561518192291, -0.9081122875213623], [-0.4648137390613556, -0.6509343981742859, -0.20718662440776825], [-0.07029809802770615, -0.19062168896198273, -0.6919618844985962], [0.679841160774231, 0.17431879043579102, 0.1393357366323471]], "0_bias": [0.10617594420909882, -0.1385536938905716, 0.07512716203927994, 0.2847123146057129, 0.07253733277320862, -0.12119852006435394, -0.09440042823553085, -0.009635718539357185, 0.11992907524108887, 0.056027237325906754, 0.1128610372543335, -0.380003422498703, 0.3110003173351288, 0.16379989683628082, -0.26899221539497375, 0.24189290404319763], "1_bias": [0.37042632699012756, -0.25296539068222046, -0.03408031910657883, -0.30144235491752625, 0.04001931473612785, -0.021681135520339012, 0.23372028768062592, 0.2306137979030609, 0.052056025713682175, 0.24886874854564667, -0.10017845034599304, 0.11298403143882751, 0.015794595703482628, 0.13635578751564026, 0.0072724418714642525, 0.1025090292096138], "2_bias": [-0.029210537672042847, 0.19734475016593933, 0.10400394350290298],"obj_num": 2}