{"0_weights": [[-0.09148009866476059, -0.16946649551391602, -0.07342168688774109, -0.529021680355072, 0.060805127024650574, -1.1191157102584839, -0.2851555347442627, 0.09878592193126678, 0.12137769907712936, 0.25358667969703674, 0.45298314094543457, 0.22515356540679932, -0.5851468443870544, 0.02845754288136959, 0.436262309551239, 0.3392567038536072], [-0.1949830949306488, 0.08617372810840607, 0.8305696845054626, 0.16590827703475952, -0.5191594362258911, -0.2823139429092407, 1.4027565717697144, -0.026003796607255936, 0.25805673003196716, 0.7156271934509277, -0.07396561652421951, -0.18549782037734985, -0.2825436294078827, 0.8569751381874084, 1.0285905599594116, -1.3382405042648315], [-0.9379342794418335, -0.07541081309318542, -0.20059144496917725, -0.6227266788482666, 0.5081573724746704, 0.21449507772922516, -0.011817410588264465, -0.5451337099075317, 0.47032585740089417, -0.034470777958631516, -0.2579928934574127, 0.7436135411262512, -0.11467036604881287, -0.33533975481987, 0.6800081133842468, 0.4118521213531494], [-0.3392316699028015, 1.076798677444458, -0.032486144453287125, 0.018096713349223137, -0.1792069375514984, 0.20247164368629456, -0.3891606628894806, 0.7812597751617432, -0.39492690563201904, 0.15172985196113586, 0.06602180749177933, -0.011082042008638382, -0.10815534740686417, -0.2654757499694824, -0.9867331385612488, -0.741754949092865], [0.5992611050605774, 0.056956466287374496, 0.15784916281700134, 0.5476966500282288, -0.5463262796401978, 0.5648486614227295, 0.13544723391532898, 0.2972845435142517, 0.6952905058860779, 0.8094887137413025, 0.7782271504402161, -0.024433057755231857, 0.9299160242080688, -0.7026639580726624, 0.37928083539009094, -0.07398659735918045], [0.5795276761054993, -0.643231987953186, 0.2527100145816803, -1.1204569339752197, -0.28927716612815857, 1.1699187755584717, 0.19366562366485596, -1.0293759107589722, 0.35968878865242004, 0.00962979719042778, -0.06833823770284653, 0.46298152208328247, 0.2393941581249237, 0.05791284516453743, 0.04063531383872032, -0.5732919573783875], [-0.3769630491733551, 0.5506013035774231, -0.26143980026245117, -0.05350084230303764, -0.32268133759498596, 0.4823722541332245, -0.40073370933532715, 0.2517249882221222, -0.8512898683547974, -0.7949994802474976, 0.8047518730163574, -0.8096334934234619, 0.3930172324180603, 0.1842048168182373, -0.05684175342321396, 0.4806209206581116], [0.623241662979126, -1.0281882286071777, 0.6208388805389404, -0.024397142231464386, 0.6015573143959045, 0.2568645477294922, 0.9810255169868469, 0.6395216584205627, 0.4359234571456909, -0.1360245645046234, 0.38967594504356384, 0.13843218982219696, -0.63836270570755, 0.10579013079404831, -0.12318278104066849, 0.13169240951538086], [0.32182297110557556, -0.4125134348869324, 0.4196692407131195, 0.23896758258342743, -0.10087480396032333, 0.47570639848709106, 0.6146708726882935, -0.006710096728056669, 0.6956098079681396, -0.4348427951335907, 0.19474005699157715, -0.3035973608493805, 0.02858172543346882, -0.4882948696613312, 0.09603238105773926, -0.26481449604034424], [0.516425609588623, -0.7186145186424255, -0.1440354436635971, 0.15522730350494385, -0.9007302522659302, -0.206058531999588, -0.08284934610128403, -0.10041694343090057, 0.352881520986557, 0.29945555329322815, -0.019163750112056732, 0.3048470914363861, -0.47030726075172424, 0.06065090745687485, -0.34248265624046326, 0.8731404542922974], [0.27808815240859985, 0.01411215029656887, 0.1887853592634201, -0.6082301735877991, -0.2540355324745178, 0.5537928938865662, 0.013168907724320889, -0.4047285318374634, 0.24438129365444183, -0.05046136677265167, -0.23141101002693176, -0.15777930617332458, 0.0618402436375618, -0.6424475908279419, -0.12000421434640884, 0.07745464146137238]], "1_weights": [[-1.2773139476776123, 0.029421541839838028, 0.4963337182998657, -0.06549777090549469, 0.5674011707305908, 0.435192734003067, -0.13699939846992493, 0.49801456928253174, -0.7478737235069275, -0.11731583625078201, 0.9301192164421082, 0.17037031054496765, 0.7646431922912598, 0.11739472299814224, 0.4862445592880249, -0.23522303998470306], [0.6608811020851135, 0.3324316740036011, 0.22678540647029877, -0.2086857408285141, -1.275160312652588, -0.6175394058227539, -1.086086630821228, -0.7846500873565674, 0.8016404509544373, 0.4755748510360718, -1.0928579568862915, 0.5567032098770142, 0.07117235660552979, -0.4696601629257202, -0.04230579733848572, 0.3313315212726593], [0.6617916226387024, 0.31472668051719666, 0.015250703319907188, 0.23782770335674286, -1.4680455923080444, 0.5105209350585938, 0.4196738004684448, -0.5688241720199585, -0.22794196009635925, 0.49604639410972595, 0.09016916900873184, 0.8060362935066223, -0.9664942026138306, -0.10612603276968002, -0.14336080849170685, 0.4683401882648468], [1.119081974029541, 0.3820798993110657, -0.6470091938972473, -0.09818284958600998, -0.30688318610191345, 0.9854221940040588, 0.20321722328662872, -0.3586299419403076, -0.06667110323905945, 0.31784772872924805, -0.3821948170661926, 0.4455558657646179, -0.6261104345321655, -0.0401313342154026, -0.9866411685943604, 0.36245787143707275], [0.06388765573501587, -0.3127819895744324, -0.40105140209198, -0.16860677301883698, 0.011900053359568119, -0.362285315990448, 0.6223974227905273, -0.09727830439805984, -0.32571062445640564, 0.4572021961212158, -0.46192029118537903, -2.2392637729644775, -0.32866549491882324, -0.3176969885826111, -0.2731686234474182, -0.23660391569137573], [1.1363015174865723, 0.7205039858818054, -0.5817983746528625, -0.23476450145244598, -0.3473353683948517, 0.6645223498344421, -0.43850812315940857, 0.09221695363521576, -0.2557756304740906, 0.207521453499794, -0.41339969635009766, 1.0969581604003906, 0.28944090008735657, 0.3551734685897827, -0.2243252694606781, 0.015848476439714432], [-0.05334172025322914, 0.7290952801704407, -0.1845514178276062, 0.008842584677040577, -1.129823923110962, -0.02353605255484581, -0.5131201148033142, -0.41682514548301697, -0.23337969183921814, -0.3163473606109619, 0.13174189627170563, -0.3645418882369995, 0.007629796396940947, 0.14157040417194366, 0.08519329130649567, 0.14153796434402466], [0.23308508098125458, 0.4240368902683258, 0.7127218842506409, 0.3228340744972229, 0.2431199699640274, -0.7392883896827698, 0.5483900308609009, 0.18853580951690674, -0.18114924430847168, 0.531620979309082, -0.46212902665138245, 0.09775018692016602, 0.184468075633049, -0.28515782952308655, -0.33562612533569336, 0.39938169717788696], [0.06211989372968674, 0.32059550285339355, 0.17758384346961975, 0.2268984168767929, -0.3836725950241089, 0.026908185333013535, -1.1471858024597168, -0.022827191278338432, -0.028002049773931503, 0.49750709533691406, -0.5215267539024353, -0.009740191511809826, 0.09285150468349457, 0.23323452472686768, -0.3161439001560211, 0.5911178588867188], [0.5249575972557068, 0.10890455543994904, -0.554135262966156, 0.7822795510292053, -0.10792519897222519, -0.3083937466144562, 0.5836382508277893, -1.0987695455551147, -0.18956653773784637, 0.6830880641937256, 0.3365112841129303, 0.39724063873291016, -0.3757422864437103, -0.022918812930583954, 0.6859603524208069, 0.19460661709308624], [-0.46908000111579895, -0.3893476724624634, 0.08653154969215393, -0.024228010326623917, 0.5215065479278564, -0.2799246609210968, 0.4764973819255829, 0.28493109345436096, -0.28531816601753235, -0.38400784134864807, 0.5458643436431885, -0.3344070315361023, 0.4356943666934967, 0.40007901191711426, 0.17233967781066895, 0.4185997247695923], [0.21847672760486603, 0.8201937675476074, 0.22478334605693817, -0.4840375483036041, 0.36122608184814453, -0.21001149713993073, -0.1272440254688263, 0.04043630510568619, 0.6126324534416199, 0.37052521109580994, -0.016074886545538902, 0.4026888608932495, -0.18125352263450623, -0.09184183180332184, 0.4591197967529297, 0.510818600654602], [-0.8530033230781555, -0.24003006517887115, 0.5813644528388977, 0.7375017404556274, 0.44478267431259155, -0.0014340521302074194, -0.5533594489097595, 0.30714505910873413, 0.503945529460907, -0.9051541090011597, 0.5399612188339233, -0.0967983677983284, 0.3223143219947815, 0.6796267032623291, 0.40881505608558655, -0.06526801735162735], [-0.5537463426589966, -0.14161796867847443, 0.13307437300682068, 0.1006455346941948, 0.052117783576250076, 0.3327920138835907, -0.8719785213470459, 0.5918136239051819, 0.4385228157043457, -0.19163411855697632, 0.037277702242136, -0.553305983543396, -0.08637622743844986, 0.2493135631084442, 0.8812237977981567, -0.25578466057777405], [-0.387810081243515, -0.11615243554115295, 0.15129441022872925, 0.057220250368118286, -0.30595457553863525, 0.5588585734367371, -0.2612115740776062, -0.27676233649253845, 0.48645246028900146, 0.031582579016685486, 0.6302924752235413, -0.7499401569366455, -0.04181649535894394, -0.5637838244438171, 0.2960743308067322, 0.6097062826156616], [0.25067514181137085, -0.18463167548179626, 0.38538411259651184, -0.009951990097761154, -0.9040124416351318, -0.3807564079761505, -1.337258219718933, -0.1313057243824005, 0.8501729965209961, 0.441218763589859, -0.522635817527771, 0.23745590448379517, -0.3827160894870758, -0.4756665527820587, 0.47672128677368164, -0.16744227707386017]], "2_weights": [[3.1572494506835938, 3.0583229064941406, 2.996647596359253], [0.4490692615509033, 0.5692205429077148, 0.5630744695663452], [-0.858366847038269, -0.9670988917350769, -0.7055337429046631], [0.14003901183605194, -0.03504888713359833, -0.48307427763938904], [1.3043615818023682, 1.723894476890564, 2.0365686416625977], [-0.8186892867088318, -1.0393831729888916, -1.2034116983413696], [2.4286282062530518, 2.8742799758911133, 3.2391197681427], [-0.1614484339952469, -0.48415306210517883, -1.007448434829712], [0.727527916431427, 0.9828395247459412, 0.9589500427246094], [0.576537013053894, 0.6079642176628113, 0.4988223612308502], [0.9557408690452576, 0.23428955674171448, 0.47176095843315125], [1.664920687675476, 2.1460938453674316, 2.6990768909454346], [-0.4766508638858795, -0.7439882755279541, -1.096554160118103], [-0.806600034236908, -0.42234525084495544, 0.06981299817562103], [-0.42428910732269287, -0.6612579822540283, -0.709929347038269], [0.5812144875526428, 0.2698858976364136, 0.055275630205869675]], "0_bias": [0.23521628975868225, -0.16021351516246796, -0.2262849360704422, 0.410546213388443, -0.09288319945335388, -0.11200343817472458, 0.04693088307976723, 0.06043364107608795, -0.01050493959337473, -0.08612436801195145, 0.12072502821683884, 0.06958147138357162, 0.14021088182926178, 0.03403459116816521, -0.23329608142375946, 0.22213909029960632], "1_bias": [-0.1378505378961563, -0.10600284487009048, -0.06609968096017838, 0.007773770950734615, -0.03709172084927559, 0.14726772904396057, -0.022984730079770088, 0.3895655870437622, 0.06272043287754059, -0.162868931889534, -0.855582058429718, -0.33826276659965515, -0.08178585767745972, 0.20240409672260284, 0.12253729999065399, -0.06217704713344574], "2_bias": [-0.22819380462169647, -0.016342638060450554, 0.17511232197284698],"obj_num": 3}