{"0_weights": [[-0.3108873665332794, -0.0228707417845726, -0.2527162730693817, -0.2809740900993347, 0.15170398354530334, -0.45353034138679504, -0.42342305183410645, 0.14399151504039764, -0.020520903170108795, -0.31774210929870605, 0.5503668785095215, -0.14267903566360474, -0.1593286544084549, 0.3843090236186981, 0.514456033706665, -0.30655476450920105], [-0.4192146956920624, 0.15597961843013763, 0.3773617148399353, 0.14478012919425964, -0.42642736434936523, -0.032326117157936096, 0.7361261248588562, -0.1584649533033371, 0.5433494448661804, 0.5262622237205505, 0.0010194068308919668, -0.11471639573574066, -0.29624509811401367, 0.6105435490608215, 0.40336090326309204, -0.10859108716249466], [-0.23294895887374878, -0.2413012981414795, 0.1420941799879074, -0.8429721593856812, 0.08998677134513855, 0.9131219387054443, 0.07729355245828629, 0.03895319253206253, -0.09510619193315506, 0.3391796946525574, -0.8682658076286316, 0.5809215307235718, -0.09629747271537781, -0.25448572635650635, 0.4956159293651581, 0.35440772771835327], [-0.14736036956310272, 0.3789827823638916, -0.07058580964803696, 0.4222744107246399, -0.5146729350090027, 1.0846675634384155, -0.1695433109998703, 0.5577226877212524, -0.19190001487731934, -0.1704065352678299, -0.7299349904060364, 0.2523958086967468, 0.17898477613925934, 0.06374160945415497, -0.1559770405292511, -0.3062164783477783], [0.5806914567947388, -0.011826756410300732, -0.11405646055936813, 0.2473415732383728, -0.555539071559906, -0.11087114363908768, 0.02179587073624134, -0.16514363884925842, 0.5864721536636353, 0.7273437976837158, 0.5936827659606934, 0.115914486348629, 0.6791799068450928, -0.46389055252075195, 0.3902619779109955, -0.049464739859104156], [0.6291415691375732, -0.6479437947273254, 0.005579760298132896, -0.33668965101242065, 0.30129870772361755, 0.6880820989608765, 0.4389481246471405, -0.7119958996772766, 0.21302133798599243, -0.07867228984832764, 0.2892478406429291, 0.33544087409973145, 0.2536354064941406, 0.780519962310791, 0.5406878590583801, -0.5557070970535278], [0.10105744749307632, 0.44981464743614197, -0.8195575475692749, -0.2403043657541275, -0.39603519439697266, 0.6477985382080078, -0.42767661809921265, -0.18868596851825714, -0.7346920371055603, -0.48270756006240845, 0.265284925699234, -0.6258320808410645, -0.07992799580097198, 0.18596766889095306, 0.14714780449867249, 0.45419955253601074], [0.39063137769699097, -1.089539647102356, 0.49403491616249084, 0.12956416606903076, 0.35455697774887085, -0.02067810669541359, 0.6263368129730225, 0.39558711647987366, 0.1391083151102066, 0.09018924832344055, 0.6870695948600769, 0.3771008551120758, -1.0917351245880127, 0.06530681252479553, -0.1488848626613617, 0.15925587713718414], [0.3816281855106354, -1.0400538444519043, 0.406148761510849, 0.577534556388855, 0.3295212388038635, 0.9218577742576599, 0.9745531678199768, -0.3315202593803406, 0.8206313252449036, -0.11324653774499893, -0.17759817838668823, -0.4281412363052368, 0.4524115025997162, -0.13703173398971558, -0.1332252025604248, -0.44771626591682434], [0.6463592052459717, -0.6304954290390015, 0.4157927632331848, -0.433616578578949, -0.991365909576416, -0.34190312027931213, -0.09614375978708267, 0.5660245418548584, -0.2289997786283493, 0.4106428027153015, -0.6960203647613525, 0.6109445691108704, -0.6611354351043701, 0.5100528001785278, 0.07107996195554733, 0.8096923232078552], [-0.19624438881874084, -0.3294954001903534, -0.08455490320920944, -0.7316275238990784, 0.26529985666275024, 1.0928618907928467, -0.04981530085206032, -0.5104242563247681, -0.19671480357646942, 0.2596922814846039, 0.0066901566460728645, 0.34969040751457214, -0.30399322509765625, -0.10790301114320755, 0.2755240499973297, -0.21942991018295288]], "1_weights": [[0.11831818521022797, 0.36038094758987427, 0.3944958746433258, 0.2529880404472351, 0.13847407698631287, 0.3635404706001282, 0.5201187133789062, -0.5279297828674316, -0.2604624032974243, 0.336715430021286, 0.7332032322883606, 0.4808819890022278, 0.024501819163560867, -0.0076782782562077045, 0.28073787689208984, 0.20505349338054657], [-0.15606039762496948, 0.5505264401435852, 0.5533976554870605, -0.36709079146385193, -1.2418081760406494, -0.8149733543395996, -0.9587459564208984, -1.257745623588562, 0.2994611859321594, 0.6031437516212463, 0.13899192214012146, -0.2929297983646393, 0.42508405447006226, -0.1608327478170395, -0.3299191892147064, 0.09805254638195038], [0.29129427671432495, -0.04830488935112953, 0.28280317783355713, -0.15326598286628723, -1.673183560371399, 0.20698672533035278, -0.4348355531692505, 0.46278640627861023, -0.009094876237213612, 0.37630558013916016, 0.3977769911289215, 0.592544674873352, -0.3764663338661194, -0.026874352246522903, 0.06663090735673904, 0.35075080394744873], [0.3956652581691742, 0.2187744826078415, -0.593534529209137, 0.056344497948884964, 0.23780685663223267, 0.34392789006233215, 0.014114350080490112, -0.5043239593505859, -0.5148448944091797, 0.05496213585138321, -0.15845425426959991, -0.13631366193294525, -0.6465252041816711, 0.8597486019134521, -0.5385579466819763, 0.6517423391342163], [1.2651249170303345, 0.3082730770111084, -0.6790522933006287, -1.4094593524932861, 1.2722529172897339, -0.6099674105644226, 0.7565819025039673, -0.7320825457572937, -2.569129705429077, -1.0281201601028442, -0.20244817435741425, 1.0874608755111694, -0.16815821826457977, -1.9410940408706665, -0.3663734495639801, -1.3640867471694946], [0.36559048295021057, 0.38928577303886414, -0.4569449722766876, 0.05819478631019592, -0.05502079054713249, 0.5602877140045166, 0.28425124287605286, 0.6767370104789734, 0.23708820343017578, -0.2047443836927414, 0.12033454328775406, 0.5443593859672546, 0.45242223143577576, -0.05487032234668732, -0.0579969696700573, -0.44604170322418213], [-0.3663284182548523, 0.4348312318325043, -0.14388488233089447, 0.03451753407716751, -1.8832902908325195, -0.01240622904151678, -0.12207945436239243, -0.135138139128685, 0.03961840644478798, 0.006794126704335213, -0.23136605322360992, -0.4464426636695862, 0.21343928575515747, -0.20544205605983734, 0.2632926106452942, -0.06436751037836075], [0.30777138471603394, 0.5864232778549194, 0.8117799162864685, -0.5222258567810059, 0.7470160126686096, -0.3135411739349365, 0.6549986004829407, -1.7432807683944702, -0.3856159746646881, 0.6415613293647766, 0.7252539992332458, 0.5324497818946838, -0.5492204427719116, 0.5823127627372742, -0.595434844493866, 0.4404621720314026], [-0.27497372031211853, 0.02901442162692547, 0.5918683409690857, 0.040962137281894684, -1.348585844039917, 0.018449241295456886, -0.31400662660598755, 0.012105640023946762, 0.14858421683311462, 0.2733672857284546, -0.33003222942352295, -0.4735497534275055, -0.12760525941848755, 0.0634787306189537, -0.12980136275291443, 0.2157876342535019], [0.312543123960495, -0.4722895324230194, -0.07049526274204254, -0.09060032665729523, 0.048276614397764206, -0.343779593706131, 0.15182405710220337, -0.5009268522262573, -0.1786399483680725, 0.6208307147026062, 0.27523157000541687, 0.16206134855747223, -0.5780038237571716, -0.28599971532821655, -0.2480117380619049, -0.0540064200758934], [-0.8655453324317932, -0.7246601581573486, 0.029595404863357544, 0.5670197606086731, 0.49566251039505005, 0.2169024795293808, 0.04556475207209587, -0.08908697217702866, -0.5436856746673584, 0.07520417869091034, 0.10801958292722702, -0.7868285775184631, 0.27938029170036316, -0.3547547161579132, 0.21550694108009338, 0.7766150832176208], [0.35417526960372925, 0.2713765501976013, 0.1723523586988449, -0.44297119975090027, 0.41213738918304443, -0.3718048930168152, 0.10984177887439728, -0.48410820960998535, 0.22272911667823792, 0.6837811470031738, -0.1433183252811432, 0.2920330762863159, -0.15999071300029755, -0.41756290197372437, -0.08156747370958328, 0.6127623915672302], [0.8611658811569214, 0.4101417362689972, 0.021450426429510117, -0.52211993932724, 0.5397904515266418, -0.19342714548110962, 0.07515597343444824, -0.06096944585442543, -0.1727151870727539, -1.0676205158233643, 0.21007533371448517, 0.6052485704421997, 0.26588526368141174, 0.42219236493110657, -0.6252186298370361, -1.0225181579589844], [0.10785264521837234, -0.18834109604358673, 0.32733646035194397, 0.23171505331993103, -0.058995094150304794, -0.01695444993674755, -0.39597049355506897, 0.5808228850364685, 0.7042915225028992, -0.08531051874160767, -0.379145085811615, -0.3238123953342438, 0.060437075793743134, -0.42303016781806946, 0.7976792454719543, 0.18848569691181183], [-0.2042740136384964, -0.34900715947151184, 0.08520977199077606, -0.13585583865642548, -0.0469902865588665, 0.35510116815567017, 0.1352549046278, 0.0966627225279808, 0.2588071823120117, 0.4475069046020508, 0.42310455441474915, -0.12586000561714172, 0.09990821778774261, -0.7026453018188477, 0.2473295032978058, 0.37701982259750366], [-0.8338773250579834, -1.025571346282959, 0.38144031167030334, 1.06282377243042, -1.1754231452941895, 0.8854468464851379, -1.4674580097198486, 0.9291028380393982, 0.295745313167572, 0.10131438076496124, -0.09178347885608673, -1.2191667556762695, 0.5876489281654358, -0.7191165685653687, 0.2897564768791199, -0.24802957475185394]], "2_weights": [[0.020503927022218704, 0.591428816318512, 1.0131455659866333], [0.49392813444137573, 0.5371307730674744, 0.6054674386978149], [-0.699552595615387, -0.68013995885849, -0.8205957412719727], [-0.284101665019989, -0.1669514924287796, -0.5798646807670593], [1.870668649673462, 2.7244069576263428, 3.8353188037872314], [-0.2017815113067627, -0.49241676926612854, -0.6939336657524109], [1.2363229990005493, 1.2005051374435425, 1.3792561292648315], [-1.191702127456665, -1.2141896486282349, -1.198764681816101], [-0.923619270324707, -0.800173282623291, -0.4724481701850891], [0.3152959942817688, 0.5718239545822144, 0.6545954942703247], [0.4047650396823883, 0.1291472464799881, 0.3786034882068634], [1.3304449319839478, 1.4178292751312256, 1.3699740171432495], [-0.6681687831878662, -0.6866329908370972, -0.8863458037376404], [-1.5084104537963867, -1.1056604385375977, -0.5344092845916748], [-0.29708534479141235, -0.44410592317581177, -0.5627415180206299], [0.8058595061302185, 0.3484095335006714, 0.07801917940378189]], "0_bias": [0.12612247467041016, -0.021298028528690338, -0.1609102040529251, 0.24665199220180511, -0.11981270462274551, 0.00144235382322222, 0.04224877059459686, -0.0371648445725441, 0.06647604703903198, -0.06739258766174316, 0.011381782591342926, -0.00945822149515152, 0.02498389594256878, 0.07476497441530228, 0.10689591616392136, -0.01742689684033394], "1_bias": [-0.010364326648414135, -0.08696363121271133, 0.03402331843972206, 0.2112797051668167, 0.17432227730751038, 0.1426243633031845, 0.1754424124956131, 0.00689433328807354, -0.025041084736585617, 0.17446769773960114, -0.010990946553647518, 0.01899297721683979, 0.05168307572603226, 0.07657323032617569, 0.09712910652160645, 0.02467009611427784], "2_bias": [-0.06664750725030899, 0.05185597762465477, -0.05762501806020737]}