{"0_weights": [[-0.11507244408130646, -0.20499007403850555, -6.077157013351098e-05, -0.22844116389751434, 0.28997570276260376, -0.7454280257225037, -0.6228901147842407, 0.36114346981048584, 0.013252068310976028, -0.05994624271988869, 0.5295621156692505, -0.09419885277748108, -0.018901454284787178, 0.06295710057020187, 0.36861082911491394, -0.24743236601352692], [-0.49783948063850403, -0.1424679160118103, 0.30279552936553955, -0.22443397343158722, -0.7043665051460266, -0.08763004839420319, 0.6799944639205933, -0.30276599526405334, 0.17451928555965424, 0.6560149192810059, 0.27252262830734253, 0.12342101335525513, -0.05939079448580742, 0.7947113513946533, 0.29619860649108887, -0.4409199059009552], [-0.730592668056488, -0.16117270290851593, -0.14696291089057922, -0.5203700661659241, 0.37553802132606506, 0.5575155019760132, -0.023681143298745155, -0.5310453176498413, 0.5011124014854431, 0.05690176039934158, -0.5122496485710144, 0.5390225052833557, -0.3426942825317383, -0.1633695662021637, 0.2480430155992508, 0.1269180029630661], [-0.20336653292179108, 0.2703563868999481, 0.11544670909643173, -0.4106433391571045, -0.46706950664520264, 0.7413275837898254, -0.300239235162735, 0.5956117510795593, -0.5993105173110962, -0.21390749514102936, -0.38718733191490173, 0.07921123504638672, 0.15175718069076538, -0.04615912586450577, -0.19705048203468323, -0.6237823367118835], [0.6740649938583374, 0.14399908483028412, -0.19601237773895264, 0.5269743204116821, -0.19252903759479523, -0.06885544955730438, -0.20367029309272766, 0.11437104642391205, 0.8020719289779663, 0.637356162071228, 0.7346385717391968, 0.18931591510772705, 0.7390177845954895, -0.600130021572113, 0.40305760502815247, -0.07153158634901047], [0.6764946579933167, -0.17436054348945618, 0.06846294552087784, -0.8383089303970337, 0.4960229992866516, 0.6199222207069397, 0.1427801251411438, -0.6346433162689209, -0.10365843027830124, 0.15239208936691284, 0.4576512575149536, 0.48085546493530273, 0.12764936685562134, 0.6239782571792603, 0.5771430134773254, -0.2830035090446472], [-0.20487399399280548, 0.49022752046585083, -0.07538407295942307, -0.11756854504346848, -0.0849904865026474, 0.3980362117290497, -0.17095598578453064, -0.2359490692615509, -0.6007653474807739, -0.6105356812477112, 0.5418227314949036, -0.6162581443786621, 0.3606283366680145, 0.2197159081697464, -0.15170980989933014, 0.5830217599868774], [0.3697696626186371, -0.8131206035614014, 0.4586527347564697, 0.07450372725725174, 0.36099445819854736, -0.023256909102201462, 0.4528517425060272, 0.6898054480552673, 0.03628924489021301, 0.027551131322979927, 0.368745356798172, 0.1974271982908249, -0.6424767971038818, -0.13276858627796173, -0.07652398198843002, 0.1107555627822876], [0.29481232166290283, -0.5371646285057068, -0.030718307942152023, 0.31888023018836975, 0.01645042560994625, -0.047918662428855896, 0.11098427325487137, 0.16999703645706177, 0.3701803982257843, -0.31350427865982056, -0.08797213435173035, -0.4438154399394989, -0.037850115448236465, -0.24774734675884247, -0.35261133313179016, -0.17795991897583008], [0.33745890855789185, -0.45215046405792236, -0.01793763041496277, 0.016964729875326157, -0.5086438059806824, -0.01833813451230526, 0.24298064410686493, 0.3414953947067261, 0.45329660177230835, 0.21018332242965698, 0.08334922790527344, -0.17183561623096466, -0.3228123188018799, 0.15340524911880493, 0.10795347392559052, 0.5670410394668579], [-0.016078194603323936, 0.022648246958851814, 0.42973729968070984, -0.21851687133312225, -0.09661457687616348, 0.14440733194351196, -0.361817866563797, -0.07153292000293732, 0.2382558137178421, -0.1795862764120102, -0.053663093596696854, 0.06701859086751938, 0.0647529810667038, -0.25440651178359985, -0.017058109864592552, -0.04687350615859032]], "1_weights": [[0.8217113614082336, 0.7771128416061401, -0.22962316870689392, -0.2671906352043152, 0.769117534160614, 0.3400658965110779, 0.5893253087997437, -0.4362097680568695, 0.10614675283432007, 0.40547558665275574, 0.9053620100021362, 0.5338674783706665, -0.09980529546737671, -0.5090503692626953, -0.08032253384590149, 0.3599434196949005], [-0.3604668080806732, 0.28172141313552856, 0.2535412013530731, -0.04490004852414131, -0.44067496061325073, 0.06163501739501953, -0.13077688217163086, -0.1874351054430008, -0.39752817153930664, -0.003947343211621046, 0.24925316870212555, -0.2470928579568863, 0.40915602445602417, -0.03183234855532646, -0.4331780672073364, -0.24253211915493011], [1.3580549955368042, 0.9528324604034424, -0.542012095451355, -0.31166407465934753, 0.06901934742927551, 0.40282875299453735, -0.0332140177488327, 0.13292889297008514, -0.9271364212036133, 0.8211730718612671, 0.47290343046188354, 0.48298588395118713, -0.6458991765975952, -0.8214170932769775, -0.7849546074867249, -0.29606562852859497], [-0.16451187431812286, -0.4740723967552185, 0.26323992013931274, 0.5041379332542419, -0.2905721068382263, 0.43711423873901367, -0.4866233766078949, 0.2777291238307953, -0.5173045992851257, -0.47082820534706116, -0.3999972343444824, -0.19270363450050354, 0.004743410740047693, 0.7343824505805969, -0.4620788097381592, -0.24278178811073303], [0.8700928688049316, -0.2549990117549896, -0.14527970552444458, -0.25409072637557983, 0.5184732675552368, -0.06851691007614136, 0.6104721426963806, -0.0462062731385231, -0.22396163642406464, -0.2257615178823471, 0.2731797695159912, 0.14091865718364716, -0.32642799615859985, -0.5221992135047913, -0.29355013370513916, -0.489797979593277], [0.6263453364372253, 0.46573856472969055, -0.24609290063381195, 0.057729288935661316, -0.19490526616573334, 0.3425385355949402, 0.12157842516899109, 0.624285101890564, 0.1756913810968399, -0.7332486510276794, 0.03726297244429588, 0.6167972683906555, 0.35675954818725586, -0.059879936277866364, -0.11064071208238602, -0.46665358543395996], [-0.24959203600883484, 0.2049694061279297, 0.09867072850465775, 0.03758849948644638, -0.6103067398071289, -0.3231118619441986, -0.3205186724662781, -0.1450604647397995, 0.4576762616634369, -0.47748756408691406, -0.2990623116493225, -0.32255616784095764, 0.27683621644973755, 0.4942532181739807, 0.24950803816318512, -0.38309144973754883], [-0.37127262353897095, 0.22445259988307953, 0.5357399582862854, 0.06801397353410721, 0.3026469647884369, -0.715973436832428, 0.41998881101608276, -0.06337549537420273, -0.15894347429275513, 0.7726752758026123, -0.09468712657690048, 0.08511590212583542, 0.19078895449638367, -0.012035819701850414, -0.12512104213237762, -0.00585406506434083], [-0.442372590303421, -0.419624000787735, 0.6117464303970337, 0.17567703127861023, 0.07957329601049423, 0.3301711678504944, -0.4281857907772064, 0.47941112518310547, 0.09873358905315399, -0.44351157546043396, -0.5633822083473206, 0.06269387155771255, 0.03762265294790268, 0.32380595803260803, -0.005684960633516312, 0.1519555002450943], [0.8996279239654541, 0.4647773504257202, -0.45387375354766846, -0.11704523116350174, -0.1892516165971756, -0.08306270837783813, 0.5469395518302917, -0.2230260670185089, -0.5081984400749207, 0.5543910264968872, 0.2689442038536072, 0.5051065683364868, -0.6375207901000977, 0.05362052842974663, -0.4013165235519409, -0.002283826470375061], [-0.5230302810668945, -0.32722944021224976, -0.012854312546551228, 0.3483579158782959, 0.5742266774177551, -0.13280346989631653, 0.3176632523536682, 0.16471031308174133, -0.25968998670578003, -0.3962113559246063, 0.4688233435153961, 0.0941629633307457, 0.30089402198791504, 0.32053467631340027, 0.15701667964458466, 0.37237656116485596], [0.180291548371315, 0.37534892559051514, -0.05519479140639305, -0.5982786417007446, 0.32009920477867126, 0.28906527161598206, 0.25084662437438965, 0.10245049744844437, 0.23129358887672424, 0.7850856781005859, -0.11859692633152008, 0.4619816541671753, -0.10409615188837051, -0.3306088149547577, 0.14201591908931732, 0.45021674036979675], [-0.23401185870170593, -0.09780709445476532, 0.10471267998218536, 0.4194113612174988, 0.06777148693799973, -0.1687770038843155, -0.39243847131729126, 0.29544758796691895, 0.6108477115631104, -0.5845368504524231, 0.13675472140312195, -0.23917651176452637, 0.32472023367881775, 0.37477514147758484, 0.07802414894104004, -0.10932983458042145], [0.12879015505313873, 0.04127398505806923, 0.23848849534988403, 0.5681073665618896, -0.24269342422485352, -0.4983808696269989, -0.23870347440242767, 0.5958598256111145, 0.5340425372123718, -0.311288058757782, -0.5174754858016968, -0.22056147456169128, 0.08745360374450684, 0.0864131972193718, 0.6955999732017517, 0.22700390219688416], [-0.3414861559867859, -0.3654758930206299, 0.237127423286438, 0.18541423976421356, -0.11384494602680206, 0.44341227412223816, 0.07372341305017471, 0.12396477907896042, 0.1846293807029724, 0.06941648572683334, 0.32375335693359375, -0.004943458363413811, 0.15835900604724884, -0.3152548670768738, 0.310524582862854, 0.23588933050632477], [-0.3387678563594818, 0.17737889289855957, -0.19661439955234528, 0.501603364944458, -0.6343108415603638, 0.49872836470603943, -0.30163735151290894, 0.0010340723674744368, 0.2105746865272522, -0.27526482939720154, -0.14344806969165802, -0.2853146195411682, -0.004050914663821459, -0.11699380725622177, 0.3372191786766052, -0.18456068634986877]], "2_weights": [[-0.3688238561153412, 1.3693838119506836, 0.09781753271818161], [0.20138509571552277, 0.8356620669364929, 0.4478296935558319], [-0.3854079842567444, -0.5792015194892883, 0.20516647398471832], [-0.1315441131591797, -0.1297125220298767, -0.519152820110321], [0.7031329870223999, 0.49606284499168396, 0.15188094973564148], [-0.8191199898719788, -1.1861300468444824, -0.7614576816558838], [0.538291871547699, 0.6019213199615479, 0.5817131400108337], [-0.15050317347049713, 0.06449331343173981, -0.16428175568580627], [-0.5554912090301514, -0.4780309200286865, 0.16703303158283234], [0.26691746711730957, 0.5331116914749146, 1.4579321146011353], [0.6128659844398499, -0.0016012865817174315, 0.14207126200199127], [0.24252067506313324, 0.700471043586731, 0.1891956627368927], [-0.45295828580856323, -0.11380524933338165, -0.6996954679489136], [-0.4976678788661957, -0.6285017728805542, -0.555850088596344], [-0.22324417531490326, -0.4748465418815613, -0.414768785238266], [0.8743650317192078, 0.5263625979423523, 0.2505200207233429]], "0_bias": [0.16773231327533722, 0.11050480604171753, -0.1701754480600357, 0.24922364950180054, 0.04471716284751892, -0.13755486905574799, -0.0830073282122612, 0.18804754316806793, -0.004414472728967667, -0.04698939993977547, -0.0035990013275295496, -0.06851048767566681, 0.18192742764949799, -0.05940825119614601, -0.03517650067806244, 0.10468313843011856], "1_bias": [0.0002795053005684167, 0.032125744968652725, -0.08523266017436981, 0.00892002135515213, 0.022801360115408897, -0.08500903844833374, 0.09833919256925583, 0.004955105017870665, 0.14347252249717712, 0.20944508910179138, 0.05379343405365944, 0.06867703050374985, 0.0022287587635219097, 0.13712306320667267, -0.016579050570726395, -0.1466100960969925], "2_bias": [-0.03598546236753464, -0.00491065438836813, 0.10119014978408813]}