{"0_weights": [[-0.15507446229457855, 0.2739220857620239, -0.1068844273686409, 0.05718841403722763, -0.881964385509491, -0.679284393787384, -0.5831596255302429, -0.004396528471261263, -0.7222482562065125, 0.12593665719032288, 0.5255100131034851, 0.2871920168399811, -0.21853186190128326, 0.3066066801548004, 0.7352206707000732, 0.14427661895751953], [-0.264435350894928, 0.31692826747894287, 0.5973398685455322, -0.20007053017616272, -0.24540945887565613, 0.03141418471932411, 0.8275294899940491, -0.48236748576164246, 0.42161792516708374, 0.4763190746307373, 0.30076661705970764, -0.0797436311841011, -0.18873657286167145, 0.8369322419166565, 0.1610383540391922, -0.5269467830657959], [-0.6679221987724304, -0.6115016341209412, -0.11333337426185608, -0.42296066880226135, 1.2032289505004883, 0.2755497992038727, 0.4396965801715851, -0.4711174964904785, -0.6618581414222717, 0.7036504149436951, -0.02075131982564926, 0.7173970937728882, 0.3711783289909363, -0.400098592042923, 0.5627222657203674, 0.47141191363334656], [0.06613652408123016, 0.5332649946212769, 0.19847658276557922, 1.1340389251708984, -0.467966765165329, 0.39657241106033325, -0.11384966969490051, 0.5401299595832825, -0.42153406143188477, 0.2677095830440521, -0.7423503398895264, 0.10595343261957169, 0.21498677134513855, 0.046405911445617676, -0.4629923701286316, -0.8008795380592346], [0.4696997404098511, 0.17746762931346893, 0.10301312804222107, 0.6672057509422302, -0.4978063106536865, 0.19787286221981049, -0.3892093300819397, -0.09623253345489502, 0.7858062386512756, 0.5244950652122498, 0.6353135704994202, -0.1362927258014679, 0.6497416496276855, -0.606853723526001, 0.5741634964942932, -0.2107047140598297], [0.6083115339279175, -0.2445962280035019, 0.04097053036093712, -0.26045578718185425, 0.5976019501686096, 0.648322343826294, 0.9428214430809021, -0.25092652440071106, -0.07254848629236221, 0.30151909589767456, 0.2299494594335556, 0.21842879056930542, 0.5477286577224731, 0.9487149119377136, 0.641871452331543, -0.9136323928833008], [-0.336468905210495, 0.43414685130119324, 0.13297869265079498, -0.23135235905647278, -0.09152539819478989, 0.4370940923690796, -0.24149654805660248, 0.08119063079357147, -0.6842530369758606, -0.5748372077941895, 0.33708372712135315, -0.8657606244087219, 0.35259562730789185, -0.055224258452653885, -0.5154020190238953, 0.4316778779029846], [0.5957059264183044, -1.2122896909713745, 0.6606109142303467, -0.14973096549510956, 0.22866478562355042, 0.32524847984313965, 0.4359026253223419, 0.8361949324607849, 0.13835036754608154, 0.33338236808776855, 0.2000310719013214, -0.41319701075553894, -0.77672278881073, 0.14065612852573395, 0.36496490240097046, 0.20904813706874847], [0.4662601947784424, 0.11578313261270523, 0.4813307225704193, -0.034669455140829086, 0.055329181253910065, 0.051708418875932693, 0.4504893124103546, -0.3475345969200134, 0.6060548424720764, -0.4079156816005707, -0.28266069293022156, -0.7504345178604126, -0.28770023584365845, -0.262139230966568, 0.09370014816522598, -0.5045722126960754], [0.30127397179603577, -0.4105127453804016, -0.42507532238960266, 0.3063812255859375, -0.4184825122356415, -0.47329163551330566, -0.2380899339914322, 0.3778690993785858, 0.053401414304971695, 0.5197745561599731, 0.19138212502002716, 0.5433645248413086, -0.34532463550567627, 0.19053173065185547, -0.06734295934438705, 0.5165480971336365], [-0.035379648208618164, -0.019589589908719063, -0.10419564694166183, -0.28610822558403015, 0.07437596470117569, 0.5466935038566589, 0.02259666658937931, -0.4594229757785797, 0.008810924366116524, -0.10510136187076569, -0.4584369957447052, -0.4301776885986328, -0.2725261151790619, -0.24961520731449127, 0.047499507665634155, 0.21626858413219452]], "1_weights": [[-0.18291309475898743, -0.012525918893516064, 0.5824370384216309, 0.022870969027280807, 0.20617367327213287, 0.8074948191642761, 0.3877464234828949, -0.11684402078390121, -0.29126057028770447, -0.11857831478118896, 0.5235750079154968, 0.016440637409687042, 0.41839614510536194, 0.16928362846374512, 0.2654756009578705, 0.11515314877033234], [-0.13744209706783295, 0.531536340713501, 0.521894633769989, 0.2903846800327301, -0.9707632064819336, 0.20545564591884613, -2.686367988586426, -0.8017817735671997, -0.35452914237976074, -0.012295647524297237, 0.11585580557584763, -0.10686768591403961, 0.19208896160125732, -0.20087549090385437, -0.34644582867622375, 0.3395156264305115], [0.3956937789916992, -0.020489083603024483, -0.1253945678472519, -0.2114724963903427, 0.36907997727394104, 0.3884398639202118, -0.02580893598496914, 0.36706411838531494, 0.17767111957073212, 0.5699136257171631, -0.1305931806564331, 0.2668750584125519, -0.6495307087898254, -0.30310577154159546, -0.003886657301336527, 0.4997026324272156], [0.7803029417991638, -0.15024369955062866, -0.33221524953842163, -0.015345039777457714, 0.1478518396615982, -0.1816696673631668, -0.427076518535614, -0.4691219925880432, 0.3944244384765625, -0.21861016750335693, -0.6950008273124695, 0.48525598645210266, -0.11015518009662628, 0.5171263217926025, -1.0155428647994995, 0.05159837752580643], [-2.711467981338501, -0.7368291020393372, 0.20034588873386383, 0.24604284763336182, 0.371432900428772, -0.4822011888027191, 0.4462873041629791, 0.22086431086063385, -1.4550583362579346, 0.5501896142959595, 0.8580694198608398, -0.013986472971737385, -0.02749628946185112, 0.7310352921485901, -0.9621717929840088, -0.3832492232322693], [-0.37790605425834656, 0.08313602209091187, -0.10463644564151764, -0.3342270255088806, -0.6423545479774475, 0.8435705304145813, 0.6570444107055664, 0.2906300127506256, -0.7687932252883911, -0.6438611745834351, 0.5476500391960144, -0.20732122659683228, 0.536547064781189, 0.23065830767154694, -0.26284506916999817, -0.2267494648694992], [-0.2877064645290375, 0.7270914912223816, -0.12156867980957031, 0.3107578754425049, -0.5339196920394897, 0.0950254276394844, -1.091002106666565, 0.26728329062461853, -0.11908896267414093, -0.12810476124286652, -0.587019145488739, 0.12180956453084946, 0.011282393708825111, 0.09887121617794037, 0.15006910264492035, 0.12253249436616898], [-0.4236867427825928, -0.19054605066776276, 0.5836669206619263, 0.1459515392780304, -0.09121955186128616, 0.01452555786818266, 0.37760624289512634, -0.2525060474872589, -0.15367861092090607, 0.4822434186935425, 0.7002995014190674, 0.38644346594810486, 0.5673592686653137, 0.4031752347946167, -0.6827102899551392, -0.6259384155273438], [-0.13192406296730042, -0.41729217767715454, -0.47560355067253113, -0.2280810922384262, -0.590280294418335, 0.05248261243104935, -5.155967712402344, 0.15512849390506744, -1.4540390968322754, -1.6936805248260498, 0.6719340682029724, 0.22067086398601532, 0.4012831747531891, 0.11509139090776443, -0.5770215392112732, 0.18742592632770538], [0.4006192088127136, -0.19849440455436707, -0.12304612249135971, 0.8546789884567261, -0.0030599331948906183, -0.5615509748458862, 0.20176638662815094, 0.08479498326778412, -0.1319418102502823, 0.25770771503448486, -0.03813084214925766, 0.17468847334384918, -0.33495771884918213, 0.3426656723022461, -0.04987009987235069, -0.04115462675690651], [-0.4647471010684967, -0.423830509185791, 0.031666792929172516, 0.26297131180763245, 0.2331329733133316, 0.16217879951000214, 0.3991737961769104, -0.01647581160068512, -0.4236825704574585, -0.48739832639694214, 0.7458609938621521, -0.14479243755340576, 0.2513202726840973, 0.48462769389152527, 0.5872683525085449, 0.421398401260376], [0.3307667374610901, 0.8493998646736145, -0.028405770659446716, -0.4609788656234741, 0.2719402015209198, 0.22412143647670746, -0.00983008649200201, 0.23649714887142181, 0.5782743692398071, 0.6689879894256592, -0.26471415162086487, 0.3568706512451172, -0.36548981070518494, -0.3052141070365906, 0.5793117880821228, 1.1006085872650146], [0.4022614061832428, 0.006684327032417059, 0.058740995824337006, 0.18970942497253418, 0.32107338309288025, -0.09982755035161972, -0.45314279198646545, 0.12862280011177063, -0.7228675484657288, -0.8529654741287231, 0.06773166358470917, 0.33094680309295654, 0.44287657737731934, 0.6206331849098206, 0.014263710007071495, -0.4908849895000458], [-0.37311020493507385, 0.0656946524977684, 0.11032463610172272, 0.751785159111023, -0.6893503665924072, -0.34121525287628174, -0.7912240028381348, 0.8885776996612549, 0.185299351811409, -0.2621356248855591, -0.5190220475196838, -0.42025768756866455, -0.001565030892379582, -0.05815034359693527, 0.2831427752971649, 0.4134601354598999], [-0.15186631679534912, -0.08109687268733978, 0.2039061337709427, -0.028304053470492363, 0.49996528029441833, 0.23768895864486694, -0.0569194070994854, -0.44420698285102844, 0.42185837030410767, 0.6233118772506714, 0.3227325975894928, -0.21785014867782593, 0.46539267897605896, -0.2596970796585083, 1.0697109699249268, 0.5057896375656128], [-1.1882716417312622, -0.13050763309001923, -0.4463961720466614, -0.773354172706604, -0.22699707746505737, 1.5874123573303223, -0.33275726437568665, 0.4607833921909332, -1.6799707412719727, -1.7206370830535889, -0.38958775997161865, -1.0098800659179688, 0.3389108180999756, -0.262124627828598, -0.3811604082584381, -1.0696148872375488]], "2_weights": [[0.3295051157474518, 0.35577279329299927, 0.7758887410163879], [0.5656107664108276, 0.5823007225990295, 0.559001088142395], [-0.43525731563568115, -0.37174394726753235, -0.19228489696979523], [0.09529252350330353, -0.07541877031326294, -0.7887381315231323], [0.6765681505203247, 0.819805920124054, 0.7661204934120178], [-1.1654832363128662, -1.1142539978027344, -1.1662360429763794], [1.8571666479110718, 2.2624876499176025, 2.7080817222595215], [0.2957877516746521, 0.3264903426170349, -0.10417750477790833], [-1.7333391904830933, -1.0330449342727661, -0.33306610584259033], [2.0779294967651367, 1.3710399866104126, 0.6742050647735596], [-1.0668188333511353, -1.3261213302612305, -1.4452016353607178], [-0.411278635263443, 0.16891270875930786, 0.17053253948688507], [-0.44197791814804077, -0.6155774593353271, -1.0223826169967651], [-0.5480390191078186, -0.6188328862190247, -0.035836562514305115], [1.407644271850586, -0.15096895396709442, -0.13469208776950836], [0.796301007270813, 0.3404197692871094, 0.09858746081590652]], "0_bias": [0.22692345082759857, 0.12469837814569473, 0.030263056978583336, 0.38632333278656006, 0.013216324150562286, -0.12234926968812943, 0.2135356068611145, 0.19760972261428833, 0.27334171533584595, 0.10615377128124237, 0.027951858937740326, 0.14261367917060852, 0.10505851358175278, 0.20502910017967224, -0.2667987048625946, 0.29472342133522034], "1_bias": [0.23855826258659363, 0.40142399072647095, -0.04633212834596634, -0.0790102630853653, -0.17542819678783417, -0.3183757960796356, 0.26621827483177185, -0.06869930028915405, 0.2013193815946579, 0.14555656909942627, -0.20779286324977875, 0.17500659823417664, -0.03861621022224426, -0.00547832902520895, -0.5883787274360657, 0.16786910593509674], "2_bias": [0.143178328871727, 0.22498728334903717, 0.31010329723358154],"obj_num": 4}