{"0_weights": [[0.02362235076725483, 0.21535570919513702, -0.120795838534832, -0.6041539907455444, 0.30339914560317993, -0.6452341079711914, -0.4798896312713623, 0.37690773606300354, -0.09549955278635025, 0.005619792267680168, 0.4084320068359375, -0.072108693420887, 0.030604006722569466, -0.22929514944553375, 0.30043748021125793, -0.2567678391933441], [-0.5580341815948486, 0.27401214838027954, 0.5129490494728088, -0.19298489391803741, -0.5371652245521545, -0.16538237035274506, 0.824359655380249, -0.48463743925094604, 0.6337149143218994, 0.5267258882522583, 0.02567431330680847, -0.2662833631038666, 0.01976059563457966, 0.7479004263877869, 0.5253212451934814, -0.4154728353023529], [-0.6052954792976379, 0.04800698533654213, -0.37034857273101807, -0.22820718586444855, -0.10649356991052628, 0.10656043142080307, 0.3159717917442322, -0.014530721120536327, -0.4971531331539154, 0.03668779879808426, -0.026796791702508926, 0.8224961757659912, -0.10668954253196716, -0.09997186064720154, 0.9338884949684143, -7.258443656610325e-05], [-0.36729514598846436, -0.06003774702548981, 0.01454189419746399, 0.5446239709854126, -0.3269643187522888, 0.6471952199935913, -0.019007138907909393, 0.29414501786231995, -0.24187807738780975, 0.1557472199201584, -0.7550495862960815, 0.17610332369804382, 0.12289154529571533, -0.10534077882766724, -0.059519484639167786, -0.8036246299743652], [0.6183546781539917, 0.337426096200943, 0.3786388635635376, 0.36426854133605957, -0.17023983597755432, 0.283866822719574, -0.27586743235588074, 0.1430860012769699, 0.42892974615097046, 0.6964948773384094, 0.5142824053764343, -0.06903890520334244, 0.8715941309928894, -0.6547778248786926, 0.3493182957172394, -0.15788452327251434], [0.7051998376846313, -0.6738147735595703, -0.05789269134402275, -0.32867079973220825, 0.7679996490478516, 0.6092939376831055, 0.163726344704628, -0.5746697187423706, 0.19731560349464417, 0.2052929848432541, 0.6139898300170898, 0.30732592940330505, 0.12501372396945953, 0.7081862688064575, 0.24577696621418, -0.2675708532333374], [-0.31671473383903503, 0.3153158724308014, -0.10132617503404617, -0.30557236075401306, -0.14790205657482147, 0.6103223562240601, -0.10715435445308685, -0.1510823518037796, -0.6322991251945496, -0.4921651780605316, 0.42918360233306885, -0.5665255784988403, 0.4708159267902374, 0.25117772817611694, -0.19572575390338898, 0.6040669083595276], [0.24487388134002686, -0.9097506999969482, 0.3425854742527008, -0.13547025620937347, 0.2873672544956207, 0.10969603061676025, 0.6513597369194031, 0.46732082962989807, 0.08790796250104904, 0.302930623292923, 0.296909898519516, 0.18256431818008423, -0.5610612630844116, -0.18261019885540009, -0.4547094702720642, -0.1264989674091339], [0.19085009396076202, -0.14174143970012665, 0.19091443717479706, -0.006839537061750889, -0.14449730515480042, 0.0915827676653862, 0.4212060868740082, -0.13406652212142944, 0.47036460041999817, -0.3134416937828064, -0.27709972858428955, -0.4676077365875244, 0.16888907551765442, -0.2752739489078522, 0.09007980674505234, -0.21320363879203796], [0.24946561455726624, -0.5078371167182922, 0.027425795793533325, 0.0441124364733696, -0.6398990750312805, -0.1333281695842743, 0.13282513618469238, 0.15143553912639618, 0.16234420239925385, 0.3926067054271698, 0.05090237781405449, 0.13574692606925964, -0.2561225891113281, 0.2638404667377472, -0.17978137731552124, 0.451568603515625], [-0.1173870638012886, -0.04702985659241676, 0.3150233328342438, -0.703062891960144, -0.13772031664848328, -0.03294514864683151, -0.13777311146259308, -0.450162798166275, -0.37583571672439575, 0.06345053762197495, -0.2794766128063202, -0.11407987773418427, 0.13445505499839783, -0.07459376007318497, 0.07776981592178345, -0.09080382436513901]], "1_weights": [[0.23933832347393036, 0.5684289336204529, 0.36833691596984863, -0.37537631392478943, 0.29475662112236023, 0.42272356152534485, 0.2997490465641022, -0.5845131278038025, 0.429677277803421, 0.5435970425605774, 0.86744225025177, 0.5762513875961304, 0.05493399128317833, 0.025696663185954094, -0.08733900636434555, 0.0041330354288220406], [-0.006784164346754551, 0.41096872091293335, 0.27859216928482056, -0.056452129036188126, -0.6147131323814392, -0.5969847440719604, -0.2851177453994751, -0.49630600214004517, -0.5253020524978638, -0.2614063024520874, -0.01911996677517891, -0.08589544147253036, 0.3795517086982727, -0.8590715527534485, -0.34109845757484436, -0.19828186929225922], [0.3349883556365967, -0.02770979329943657, 0.02223462425172329, -0.3868401050567627, 0.10346393287181854, -0.05482591688632965, -0.6519445776939392, 0.25818338990211487, -0.3890523910522461, 0.4760494530200958, 0.6221190094947815, 0.6232332587242126, -0.6352154612541199, -0.251855731010437, -0.21201099455356598, -0.13652074337005615], [-0.3532043695449829, -0.3332458436489105, -0.4563083052635193, 0.470087468624115, -0.6582506895065308, 0.9030805826187134, -0.24344241619110107, -0.47377127408981323, 0.4424794912338257, -0.394107848405838, -0.34261202812194824, -0.9124576449394226, -0.07226676493883133, 0.6202439665794373, -0.0015109350206330419, 0.6362242698669434], [0.4304444491863251, -0.23118998110294342, -0.2985268831253052, -0.2755941152572632, 0.39926964044570923, -0.8401232361793518, 0.4883592426776886, 0.025043167173862457, -1.1230204105377197, 0.3597629964351654, -0.06431683152914047, 0.09129784256219864, -0.36304590106010437, -0.4954487383365631, -0.14115487039089203, -0.9119774699211121], [0.47761762142181396, 0.5715523958206177, -0.15975353121757507, 0.06251832842826843, -0.11258775740861893, 0.4142571687698364, 0.09949914366006851, 0.8559611439704895, 0.24216453731060028, -0.6360369920730591, 0.22401759028434753, 0.49477720260620117, 0.23781323432922363, 0.06114998832345009, -0.11781656742095947, -0.26332229375839233], [-0.10244995355606079, 0.6134702563285828, -0.13602621853351593, -0.017602870240807533, -0.8708120584487915, 0.03207609802484512, -0.182955801486969, 0.07830008864402771, 0.002268851501867175, -0.6933342218399048, -0.01045621745288372, -0.28466764092445374, 0.09161383658647537, 0.06210887432098389, 0.184735506772995, 0.05576762557029724], [-0.3790496587753296, 0.19819937646389008, 0.5499428510665894, 0.24935826659202576, 0.05229330062866211, -0.11796874552965164, 0.4359841048717499, -0.18294869363307953, -0.032869063317775726, 0.4863729178905487, -0.15938091278076172, -0.14163389801979065, 0.4198746681213379, 0.18772870302200317, -0.021717380732297897, 0.1301802694797516], [0.3360138535499573, 0.3455398976802826, 0.14796918630599976, -0.21613985300064087, 0.25092384219169617, 0.01430114358663559, -0.4039634168148041, 0.29925090074539185, -0.28746724128723145, 0.31871744990348816, 0.11543562263250351, 0.37204667925834656, -0.36544376611709595, -0.06791763752698898, -0.4073878526687622, 0.23151031136512756], [0.5290826559066772, 0.05656140297651291, -0.3060073256492615, 0.3658060133457184, -0.1164206862449646, -0.2337164729833603, 0.20422250032424927, -0.5475413799285889, -0.4805731773376465, 0.378323495388031, 0.4371607005596161, 0.14377880096435547, -0.618004322052002, 0.04700015112757683, 0.027627339586615562, 0.13677026331424713], [-0.5170928239822388, -0.36072051525115967, 0.0588538832962513, 0.14150914549827576, 0.5424823760986328, -0.17045411467552185, 0.3511575162410736, -0.10487661510705948, -0.24491260945796967, -0.41032227873802185, 0.48930007219314575, 0.09281929582357407, 0.27466413378715515, 0.17034035921096802, 0.2058887928724289, 0.22495505213737488], [0.5050039887428284, 0.2175152599811554, 0.10785889625549316, -0.14287002384662628, 0.3822844326496124, -0.3082639276981354, -0.12978683412075043, -0.016331728547811508, -0.12399949878454208, 0.9005988240242004, 0.034590475261211395, 0.19431881606578827, -0.20176640152931213, -0.1581716239452362, 0.2865545153617859, 0.7971241474151611], [0.34047257900238037, 0.20372846722602844, -0.09762542694807053, 0.2520745098590851, 0.33464285731315613, -0.47370025515556335, -0.516214907169342, -0.04556940495967865, 0.2866131067276001, -0.6381977796554565, 0.20320354402065277, 0.0846400335431099, 0.24626752734184265, 0.020325470715761185, 0.16516931354999542, -0.1927717924118042], [-0.266190767288208, -0.028539905324578285, 0.38984009623527527, 0.5627554059028625, -0.6628773212432861, -0.03225080296397209, -0.25856533646583557, 0.896599292755127, 0.4798087179660797, -0.558923602104187, -0.6364365816116333, -0.3952710032463074, -0.06432463228702545, -0.30152663588523865, 0.7393974661827087, 0.13547176122665405], [-0.4341472089290619, -0.2627722918987274, -0.04223846271634102, 0.4246950149536133, -0.19759246706962585, 0.5098032355308533, 0.007302015088498592, -0.6127402782440186, -0.0825641080737114, 0.22431580722332, 0.2913478910923004, -0.2798079252243042, 0.1883935183286667, -0.4718905985355377, 0.46127137541770935, 0.3112771511077881], [-0.6911987066268921, -0.22523149847984314, 0.2217964082956314, 0.5992602705955505, -0.5559152364730835, 0.26769816875457764, -0.1288532167673111, 0.05374640226364136, 0.03480182960629463, 0.07330995798110962, -0.06261365860700607, -0.27670082449913025, 0.037741247564554214, -0.7570940256118774, 0.19824832677841187, -0.21293962001800537]], "2_weights": [[0.3615019619464874, 0.7064337730407715, -0.11316519230604172], [0.30960434675216675, 0.5089026093482971, 0.1951957643032074], [-0.43442800641059875, -0.5413951873779297, -0.07194099575281143], [-0.12434590607881546, -0.06277777999639511, -0.5370979905128479], [0.8528199791908264, 0.5377403497695923, 0.31984224915504456], [-0.13653028011322021, -0.9195252656936646, -0.4800594449043274], [0.5073592066764832, 0.6881874799728394, 0.4979848861694336], [-0.43491849303245544, 0.3963163197040558, 0.07781855016946793], [-1.025037169456482, -0.9439380168914795, -0.5918957591056824], [0.334260493516922, 0.647527813911438, 1.3053244352340698], [0.607920229434967, 0.0466233529150486, 0.17072615027427673], [0.40373557806015015, 0.8718585968017578, 0.29114872217178345], [-0.6022093892097473, -0.4774269759654999, -0.6880700588226318], [-0.2723521590232849, -0.7324594855308533, -0.010347097180783749], [-0.34624871611595154, -0.47287440299987793, -0.42212969064712524], [0.5807299017906189, 0.764114260673523, 0.4890521764755249]], "0_bias": [0.0684584453701973, 0.0326053611934185, -0.006788746453821659, 0.06909170001745224, 0.07497056573629379, 0.009538254700601101, -0.024387536570429802, 0.19078697264194489, 0.0673556998372078, 0.028574155643582344, -0.16031669080257416, -0.11746667325496674, 0.14048829674720764, 0.025820301845669746, -0.03217093646526337, 0.14227332174777985], "1_bias": [-0.07774577289819717, 0.006919848266988993, 0.16128207743167877, 0.048108506947755814, -0.09774325042963028, -0.052455198019742966, -0.01761995628476143, 0.03441281616687775, 0.022477779537439346, 0.1061856746673584, -0.026627009734511375, 0.002552593359723687, 0.020693285390734673, -0.06134419143199921, 0.11377868801355362, -0.10942257940769196], "2_bias": [-0.06863400340080261, 0.001855508773587644, 0.028105977922677994],"obj_num": 2}