{"0_weights": [[-0.22191061079502106, 0.26483818888664246, -0.08043597638607025, 0.07229878753423691, 0.4896968603134155, -0.8830786347389221, -0.6471642851829529, 0.3136749267578125, 0.0709904283285141, 0.04347243532538414, 0.4865979552268982, -0.3208952248096466, -0.009878315031528473, -0.021228883415460587, 0.31127530336380005, -0.2768179774284363], [-0.4845006763935089, -0.11496748775243759, 0.258129358291626, 0.1260073482990265, -0.7295975089073181, 0.05973859876394272, 0.7359100580215454, -0.4465329647064209, 0.3049548864364624, 0.2948123514652252, 0.46891191601753235, 0.2684539556503296, -0.06597139686346054, 0.7296832203865051, 0.4602348208427429, -0.479204922914505], [-0.8185899257659912, -0.5766463875770569, -0.14794476330280304, -0.6508078575134277, 0.31875649094581604, 0.7318812608718872, -0.05997044965624809, -0.06994993984699249, 0.34180304408073425, 0.12297490239143372, -0.4627783000469208, 0.5135400295257568, -0.03346562758088112, -0.21617808938026428, 0.4974413216114044, 0.2916853725910187], [-0.14758893847465515, 0.16943974792957306, 0.14568130671977997, -0.21689091622829437, -0.5210250616073608, 0.6568261981010437, -0.3755049705505371, 0.39635491371154785, -0.6509303450584412, -0.25844764709472656, -0.34633541107177734, 0.13405662775039673, 0.043639957904815674, -0.22563575208187103, -0.12363476306200027, -0.7022339105606079], [0.5160988569259644, 0.22557929158210754, -0.09744876623153687, 0.6112303137779236, -0.2491111159324646, -0.496457040309906, 0.03779975697398186, 0.2023504376411438, 0.6989181637763977, 0.9124404191970825, 0.5712815523147583, 0.316132515668869, 0.9074748158454895, -0.6891593933105469, 0.09629400819540024, 0.10328406095504761], [0.739095151424408, -0.2910623848438263, -0.2072724848985672, -0.8836541175842285, 0.48924827575683594, 0.764717698097229, 0.26815739274024963, -0.6096324324607849, 0.23104290664196014, 0.08318337053060532, 0.5374893546104431, 0.3318018913269043, 0.24190770089626312, 0.7790737748146057, 0.6175797581672668, -0.35746824741363525], [-0.09646254777908325, 0.5201525688171387, 0.0484798289835453, -0.24082225561141968, -0.02900872379541397, 0.4164307713508606, -0.18081921339035034, -0.6027290225028992, -0.7473103404045105, -0.6517221927642822, 0.4105704128742218, -0.8639602661132812, 0.27908414602279663, -0.0723499059677124, -0.32985737919807434, 0.6710707545280457], [0.3958801031112671, -1.4041697978973389, 0.5627323389053345, -0.027295973151922226, 0.36819401383399963, 0.059575602412223816, 0.38958391547203064, 0.7306520938873291, -0.10707643628120422, 0.032678548246622086, 0.44062578678131104, 0.02258724346756935, -0.7096024751663208, -0.12157902121543884, -0.03684673458337784, 0.337744802236557], [0.2893409729003906, -0.26072680950164795, 0.019497988745570183, 0.34239503741264343, -0.05371072515845299, 0.022854845970869064, 0.2042129933834076, 0.013893426395952702, 0.31358736753463745, -0.31159263849258423, -0.07825834304094315, -0.4180056154727936, -0.143734872341156, -0.23526020348072052, -0.13767774403095245, -0.14596523344516754], [0.36872974038124084, -0.330626517534256, 0.04384666681289673, -0.08692508935928345, -0.5915971994400024, -0.07102134078741074, 0.2528684437274933, 0.0778881087899208, 0.3887043297290802, 0.1812000274658203, 0.045887261629104614, -0.015470103360712528, -0.27225151658058167, 0.12134759873151779, -0.176965594291687, 0.48779040575027466], [-0.06711073219776154, 0.15481102466583252, 0.4133487045764923, -0.20713147521018982, -0.11413437873125076, 0.09502478688955307, -0.21767359972000122, -0.20537787675857544, 0.25843632221221924, -0.2158178985118866, 0.1263154000043869, 0.028736189007759094, 0.2567383050918579, -0.431144118309021, -0.319956511259079, 0.0684603750705719]], "1_weights": [[0.859093964099884, 0.8321470022201538, -0.21790677309036255, -0.008954349905252457, 0.5626347661018372, 0.21194516122341156, 0.6766756772994995, -0.21431949734687805, 0.07246745377779007, 0.3678232431411743, 1.0550503730773926, 0.353904664516449, -0.06538639217615128, -0.44566115736961365, -0.5153028964996338, 0.46594616770744324], [-0.6193581223487854, 0.02835669554769993, 0.4243974983692169, 0.08734879642724991, -0.21646934747695923, -0.2714516818523407, -0.8078498244285583, -0.042928483337163925, -0.31677910685539246, -0.3204943537712097, 0.0018940118607133627, -1.0107332468032837, 0.4275030493736267, 0.5374741554260254, -0.3017936646938324, -0.17555949091911316], [1.4618409872055054, -0.376888245344162, -0.025026900693774223, -0.262146919965744, -0.3746355473995209, -0.4289248287677765, -0.025588512420654297, -0.09824296087026596, -0.8438100218772888, 0.3375076353549957, 0.1729835867881775, 0.3009253144264221, -0.8990649580955505, 0.3465713858604431, -0.8940295577049255, 0.7916014194488525], [-0.6792402863502502, 0.186844602227211, 0.5039263963699341, 0.3437440097332001, -0.22433462738990784, -0.1372271627187729, -0.32999905943870544, -0.5642014145851135, -0.5066483020782471, -0.5957984924316406, -0.5646420121192932, -0.03574518486857414, 0.3914474546909332, 0.4052662253379822, -0.5727931261062622, -0.3171306848526001], [0.7191839814186096, -0.36321911215782166, -0.8171775341033936, -0.5139873027801514, 0.38848498463630676, -0.6392455101013184, 0.5154427886009216, -0.10064224898815155, -0.08601436764001846, -0.07468275725841522, 0.44763123989105225, 0.40666213631629944, -0.20967471599578857, -0.14813095331192017, -0.4416440725326538, -0.7489054203033447], [0.6960115432739258, 0.3203762173652649, -0.18684493005275726, -0.09286463260650635, -0.11775217205286026, 0.21068133413791656, 0.3058876097202301, 1.0015722513198853, 0.1468658596277237, -0.5678703188896179, -0.08179900050163269, 0.9837599992752075, 0.32115986943244934, -0.23125264048576355, -0.014787692576646805, -0.39115190505981445], [-0.5518114566802979, 0.48412102460861206, 0.4832756221294403, 0.39357057213783264, -0.5280808806419373, -0.428390234708786, -0.20472782850265503, -0.15293334424495697, 0.21764932572841644, -0.481535941362381, -0.5108227133750916, -0.36670732498168945, 0.30323708057403564, 0.3510822355747223, 0.4875328242778778, -0.18274535238742828], [-1.5960488319396973, -0.16924752295017242, 0.7504905462265015, -0.12128490954637527, -0.07499748468399048, -0.7704370617866516, 0.49551814794540405, -0.25163063406944275, -0.22538864612579346, 0.4835531711578369, -0.3090824484825134, 0.35176047682762146, -0.022026849910616875, 0.31460896134376526, 0.24700242280960083, -0.035273317247629166], [-0.36913660168647766, -0.5193052887916565, 0.27066245675086975, 0.14388589560985565, 0.06311891227960587, 0.15595872700214386, 0.028220893815159798, 0.7570262551307678, 0.4111967086791992, -0.3654893934726715, -0.2957088351249695, -0.08920051157474518, -0.06664395332336426, 0.5013678669929504, 0.4223690330982208, 0.24026936292648315], [0.8640942573547363, 0.3324016034603119, -0.16056160628795624, -0.25373756885528564, 0.04685360938310623, 0.08022874593734741, 0.564721941947937, -0.33872413635253906, -0.6026466488838196, 0.5562337636947632, -0.08244749158620834, 0.3851839005947113, -0.5349562168121338, 0.0661892369389534, -0.6719152331352234, 0.1858215034008026], [-0.2872524857521057, -0.2147609442472458, 0.15809288620948792, 0.4439992308616638, 0.6463262438774109, -0.0854281559586525, 0.2473924309015274, -0.07441595941781998, -0.3366589844226837, -0.327565461397171, 0.2893217206001282, 0.03520602732896805, 0.3364264667034149, 0.39554259181022644, 0.09861920028924942, 0.5184579491615295], [0.24076224863529205, 0.8768725991249084, -0.04716916382312775, -0.745868980884552, 0.5975519418716431, -0.19052255153656006, 0.1369856595993042, 0.005224662367254496, -0.04933793470263481, 1.0713485479354858, -0.609196126461029, 0.36135733127593994, -0.27938470244407654, -0.4197623133659363, 0.2249174863100052, 0.2808644771575928], [-0.6280582547187805, -0.0337873138487339, 0.1575995534658432, 0.3257197141647339, 0.17238707840442657, -0.09919798374176025, -0.4188409745693207, 0.3486456573009491, 0.6872701048851013, -0.47536858916282654, 0.03793428838253021, -0.13435322046279907, 0.41154003143310547, 0.4117737114429474, 0.5159591436386108, -0.09799353778362274], [-0.3395225405693054, -0.02381918393075466, 0.23228000104427338, 0.462378591299057, -0.21864768862724304, -0.787746787071228, -0.35362327098846436, 0.33482423424720764, 0.7723950147628784, -0.49821364879608154, -0.6619293093681335, -0.1905377209186554, 0.1211729645729065, -0.6998030543327332, 0.5519737005233765, -0.10102306306362152], [-0.13886184990406036, -0.25721490383148193, 0.07666416466236115, 0.4791993200778961, 0.060085445642471313, 0.46803462505340576, -0.10425838828086853, 0.1469201296567917, 0.36059242486953735, -0.3979291021823883, 0.2511110007762909, -0.2517144978046417, 0.38816037774086, -0.3244450092315674, 0.37320733070373535, 0.2594287395477295], [-0.7354002594947815, -0.04791555553674698, 0.18302446603775024, 0.7822472453117371, -0.8401103615760803, 0.7373319268226624, -0.5276921391487122, 0.15665540099143982, 0.1870020031929016, -0.4010218381881714, -0.14861078560352325, -0.09110841900110245, -0.303970068693161, 0.789710521697998, 0.2145737260580063, -0.021389486268162727]], "2_weights": [[-0.41800880432128906, 1.3663876056671143, -0.34845900535583496], [0.1326221525669098, 0.8160228729248047, 0.3381277024745941], [-0.7444340586662292, -0.653961181640625, -0.05824362859129906], [0.10691963136196136, -0.2638000547885895, -0.6758506298065186], [0.7559079527854919, 0.32570332288742065, 0.12103655189275742], [-0.7471734285354614, -1.472465991973877, -1.0994585752487183], [0.7152942419052124, 0.49971163272857666, 0.5806220173835754], [-0.31708186864852905, 0.1101551353931427, -0.16441097855567932], [-0.7309897541999817, -0.5595687031745911, 0.25555410981178284], [0.7758809328079224, 0.7829886674880981, 1.635890245437622], [0.5763697028160095, 0.37279319763183594, 0.44796526432037354], [0.20593257248401642, 0.9155024886131287, 0.444058895111084], [-0.500849187374115, -0.3951915502548218, -0.7712511420249939], [-0.7756604552268982, -0.628482460975647, -0.40186867117881775], [-0.281687468290329, -0.5065714716911316, -0.8144838809967041], [0.9017320871353149, 0.7509986162185669, 0.2758753299713135]], "0_bias": [0.2585770785808563, -0.021176913753151894, -0.038345277309417725, 0.16281302273273468, 0.10866395384073257, -0.21395201981067657, -0.08287768810987473, -0.021076038479804993, -0.0463375486433506, 0.023103035986423492, -0.02201732248067856, -0.04429619014263153, 0.17468991875648499, -0.07128211855888367, -0.050528980791568756, 0.18538862466812134], "1_bias": [-0.20006440579891205, -0.07320914417505264, 0.20008380711078644, -0.006416874472051859, 0.11838436871767044, -0.08369830250740051, 0.084942527115345, 0.22009730339050293, 0.1108802929520607, 0.6314971446990967, 0.06450086832046509, 0.13988348841667175, -0.09369649738073349, -0.03340686857700348, -0.01996091939508915, -0.15138249099254608], "2_bias": [0.05356605723500252, 0.14578862488269806, 0.08186311274766922],"obj_num": 2}