{"0_weights": [[0.33020952343940735, 0.21768347918987274, 0.1998000591993332, -0.5068975687026978, 0.23310400545597076, -0.7682524919509888, -0.48820751905441284, 0.3855701982975006, -0.43543311953544617, -0.3296635150909424, 0.25237271189689636, -0.10380027443170547, -0.18382073938846588, 0.1096821203827858, 0.47239169478416443, -0.40218278765678406], [-0.5713062286376953, 0.5702084302902222, 0.554827868938446, -0.12314028292894363, -0.503334105014801, -0.11698723584413528, 0.7910456657409668, -0.3394172489643097, 0.33450427651405334, 0.6357679963111877, 0.11234945803880692, -0.11189460009336472, -0.2163439691066742, 0.605028510093689, 0.23457071185112, -0.2541879713535309], [-0.8435397744178772, 0.10424648970365524, -0.3202005922794342, -0.6022465229034424, 0.24469521641731262, 0.6044427156448364, 0.13605888187885284, 0.1967858076095581, -0.3816010653972626, 0.32867273688316345, -0.4152698218822479, 0.5665008425712585, 0.16237705945968628, -0.5546638369560242, 0.6656707525253296, 0.2070888876914978], [-0.06703237444162369, 0.18033355474472046, 0.4340524971485138, 0.4855715036392212, -0.25322622060775757, 0.29108941555023193, -0.2951609492301941, 0.3225864768028259, -0.5515061020851135, -0.35402533411979675, -0.47411784529685974, 0.4606403410434723, -0.20826312899589539, 0.07411016523838043, -0.14958712458610535, -0.5750645399093628], [0.6052997708320618, -0.281025230884552, -0.21411234140396118, 0.4228042960166931, -0.6005496382713318, 0.3214474618434906, -0.10863956063985825, -0.30800753831863403, 0.4503997266292572, 0.678166925907135, 0.819064736366272, 0.22236818075180054, 0.6046503782272339, -0.5453393459320068, 0.4455135762691498, -0.1590029001235962], [0.1260533183813095, -0.8425890803337097, -0.2603730261325836, -0.41318801045417786, 0.6099209785461426, 0.6203375458717346, -0.24121598899364471, -0.8730026483535767, 0.3987180292606354, -0.24677148461341858, -0.05680865794420242, 0.4069046378135681, 0.11928577721118927, 0.74094557762146, 0.2637934982776642, -0.26272013783454895], [0.06878486275672913, 0.6078968644142151, -0.09935496002435684, -0.18779593706130981, -0.08532563596963882, 0.4299180507659912, 0.03695618733763695, 0.0060399724170565605, -0.6814783811569214, -0.5029287338256836, 0.1711299866437912, -0.8805349469184875, 0.0028941279742866755, 0.2954157888889313, -0.1831972301006317, 0.63322514295578], [0.094081349670887, -0.4042278826236725, 0.04606341943144798, -0.24221235513687134, 0.2628818154335022, 0.17340093851089478, 0.612546980381012, 0.39298251271247864, 0.3078325390815735, -0.015746941789984703, 0.5609513521194458, 0.06998705118894577, -0.9236312508583069, -0.1656426042318344, -0.2841641902923584, -0.3555546700954437], [0.43985509872436523, -0.6217431426048279, 0.6542176008224487, 0.2926173508167267, -0.12187764793634415, -0.057408012449741364, 0.7700737118721008, 0.03901510685682297, 0.15237203240394592, -0.513152539730072, -0.3208518326282501, -0.45000043511390686, 0.18629226088523865, -0.23812496662139893, -0.567584753036499, -0.27114972472190857], [0.351138710975647, -0.4326556921005249, -0.27543866634368896, 0.7925370335578918, -0.5371907353401184, -0.2006460428237915, -0.10272675007581711, 0.32208505272865295, 0.47131961584091187, 0.17397630214691162, 0.018525708466768265, 0.2520606815814972, -0.5953458547592163, 0.2568492889404297, -0.2649497091770172, 0.6358276009559631], [-0.11599390208721161, -0.3989088237285614, 0.012503119185566902, -0.010795878246426582, 0.1005655899643898, 0.37595757842063904, -0.4865400791168213, -0.3827469050884247, -0.3525297939777374, 0.2022554725408554, -0.5553174614906311, 0.9342517256736755, 0.09213980287313461, -0.022888533771038055, -0.14667820930480957, -0.02416047640144825]], "1_weights": [[-0.4519158899784088, 0.01706894487142563, 0.5281413197517395, 0.27400660514831543, -0.22012929618358612, 0.4606104791164398, 0.035982877016067505, -0.6390767097473145, -0.23363114893436432, -0.31537818908691406, 0.479011595249176, -0.009141637943685055, 0.3796307146549225, -0.41370877623558044, 0.2013763189315796, 0.21132288873195648], [-0.5613442063331604, 0.4578387141227722, 0.4651171863079071, -0.3915849030017853, -0.7902444005012512, -0.009219910018146038, -0.5319958925247192, 0.2562620937824249, -0.3026304244995117, -0.3873884379863739, 0.15789419412612915, 0.2362428456544876, 0.335922509431839, -0.13439546525478363, 0.012324824929237366, -0.14099039137363434], [0.21227502822875977, -0.31300684809684753, 0.35792282223701477, -0.02289574220776558, -0.2591138780117035, 0.499174565076828, -0.2949662506580353, -0.012942411936819553, -0.2813512086868286, 0.3043413758277893, 0.07332993298768997, 0.8420036435127258, -0.19075635075569153, -0.4648584723472595, -0.32520729303359985, 0.11272618174552917], [1.4041898250579834, 1.079023003578186, -0.3346203863620758, 0.1288304477930069, 0.12441222369670868, 0.046458907425403595, 0.058047886937856674, -0.6077893972396851, -1.2022112607955933, 0.9114296436309814, -0.34170567989349365, -0.21088914573192596, -0.25917327404022217, -0.23238128423690796, -0.3732255697250366, 0.6964173316955566], [0.13834863901138306, 0.3814789354801178, 0.013214469887316227, -0.3863835036754608, 0.37622079253196716, 0.034234676510095596, 0.38874998688697815, -0.5946763753890991, -0.4967617094516754, 0.8306314945220947, 0.25628751516342163, -0.05485556274652481, -0.19214874505996704, -0.45610353350639343, -0.08365882933139801, -0.6109755635261536], [0.36083924770355225, 0.49070823192596436, -0.14536228775978088, -0.16445103287696838, -0.20270085334777832, 0.8810470700263977, -0.16403107345104218, 0.8711589574813843, 0.17585042119026184, 0.011719785630702972, 0.5082570314407349, 0.5606665015220642, 0.3194844126701355, 0.28239354491233826, -0.04208097606897354, -0.309292197227478], [-0.026668211445212364, 0.7377759218215942, -0.2870650887489319, -0.06641010195016861, 0.10535874962806702, 0.07561813294887543, -0.4604596197605133, 0.07816178351640701, 0.40930435061454773, -0.19181029498577118, -0.041686464101076126, -0.42653024196624756, 0.03437996283173561, 0.11052066832780838, 0.056321531534194946, -0.3343951106071472], [-0.6428864598274231, 0.4628463685512543, 0.1403425633907318, -0.21429240703582764, 0.5527675747871399, -0.17069952189922333, 0.3140019476413727, -0.3000829815864563, -0.14304828643798828, 0.5428423881530762, -0.3187192380428314, -0.13621671497821808, 0.26236996054649353, -0.22494828701019287, -0.00033906952012330294, 0.08602752536535263], [-0.23041528463363647, -0.22693689167499542, 0.5900228023529053, 0.2608718276023865, -0.013273323886096478, 0.3210793137550354, -0.7286377549171448, 0.09204769879579544, -0.3537236750125885, -0.3006913959980011, -0.366894006729126, -0.03411170840263367, 0.0883069634437561, 0.6590722799301147, -0.400184690952301, -0.007991679944097996], [0.718184232711792, -0.7172073721885681, -0.2839311361312866, 0.3703804910182953, 0.1347988247871399, -0.4924277067184448, 0.21102474629878998, -0.7070732116699219, -0.5204173922538757, 0.4359678626060486, 0.7296793460845947, 0.8951708674430847, -0.5320838093757629, -0.11531487107276917, 0.04218219593167305, 0.04740677773952484], [-0.5133726000785828, -0.5222097635269165, 0.0728873535990715, 0.40736520290374756, 0.603658139705658, -0.2194942831993103, 0.3683156967163086, 0.04719884693622589, -0.41331374645233154, -0.21847911179065704, 0.33356067538261414, -0.19776175916194916, 0.16783203184604645, 0.42820557951927185, 0.02306200936436653, 0.45496323704719543], [0.36932140588760376, 0.4691043496131897, 0.57558673620224, -0.3391440510749817, 0.17902980744838715, -0.0334160178899765, -0.443820059299469, -1.3094804286956787, -0.7878345251083374, 0.06225665286183357, -0.9500881433486938, 0.1779281049966812, 0.6676039695739746, -2.0893313884735107, 0.441178560256958, 0.3343730866909027], [-0.7022086381912231, -0.4226638078689575, 0.3658907115459442, 1.0611332654953003, -0.7543611526489258, -0.40283530950546265, -0.790831446647644, 0.332763671875, 0.031053952872753143, -0.9717438220977783, -0.3850175440311432, -0.5785748958587646, 0.18292106688022614, 0.31606435775756836, 0.0220276340842247, -0.09364471584558487], [0.3243047893047333, -0.19982372224330902, 0.09378602355718613, 0.5808895230293274, -0.09528791904449463, -0.37206757068634033, -0.1261492818593979, 0.6752237677574158, 0.558770477771759, -0.27855488657951355, -0.6049962639808655, -0.26780495047569275, 0.15009497106075287, 0.31718748807907104, 0.7053941488265991, 0.32614901661872864], [-0.4424196481704712, -0.7280310988426208, 0.11889565736055374, -0.20842374861240387, -0.06966734677553177, 0.49788451194763184, 0.3391038477420807, 0.17586645483970642, 0.36451998353004456, 0.12031445652246475, 0.2553425431251526, -0.13831189274787903, 0.020244114100933075, -0.39068901538848877, 0.14531879127025604, -0.639632523059845], [-1.0390310287475586, -0.26672855019569397, 0.1516677886247635, 0.5255157351493835, -1.1271390914916992, 0.46419984102249146, -1.014785647392273, 0.07835430651903152, 0.32437610626220703, -0.941403865814209, -0.6193773150444031, -1.6017372608184814, -0.0811176672577858, -0.839502215385437, 0.17534859478473663, -1.659475564956665]], "2_weights": [[1.180770754814148, 1.3670883178710938, 1.4726965427398682], [1.358548641204834, 1.30295729637146, 1.1734434366226196], [-0.43212321400642395, -0.31307998299598694, 0.05145704373717308], [-0.17729970812797546, -0.36134466528892517, -0.6959092617034912], [0.7667962908744812, 0.5619822144508362, 0.31203362345695496], [-0.46042728424072266, -0.6793149709701538, -0.8918030261993408], [0.7707433700561523, 0.8402414321899414, 0.8836692571640015], [-0.5039457082748413, -0.661206841468811, -0.8859968781471252], [-0.39323291182518005, 0.0572737380862236, 0.7105154991149902], [0.3921140730381012, 0.6157171726226807, 0.7732704281806946], [0.6939607858657837, 0.47638723254203796, 0.18391482532024384], [1.6492369174957275, 1.6668779850006104, 1.5350475311279297], [-0.1819961816072464, -0.2602255940437317, -0.6311073899269104], [-1.235673427581787, -1.1295520067214966, -0.8474695086479187], [-0.03176413103938103, -0.22609275579452515, -0.33794501423835754], [1.5323749780654907, 1.3086475133895874, 0.8364270329475403]], "0_bias": [0.2065735161304474, -0.3111354112625122, -0.01736626774072647, 0.033023424446582794, 0.15356668829917908, -0.1387595236301422, -0.04678543657064438, 0.08934272825717926, 0.04326550289988518, -0.06363172084093094, 0.006286695133894682, -0.2176074981689453, -0.0631263330578804, 0.19677679240703583, -0.061737190932035446, 0.059394627809524536], "1_bias": [0.2629016637802124, -0.09045131504535675, 0.13652585446834564, -0.015635937452316284, 0.10307691991329193, -0.0020295034628361464, 0.10544906556606293, -0.01398317702114582, 0.10777229070663452, 0.3242112100124359, -0.22782400250434875, -0.07480138540267944, 0.024384481832385063, -0.01791437156498432, 0.06763705611228943, -0.22817599773406982], "2_bias": [-0.2428220808506012, -0.12573784589767456, 0.17183709144592285],"obj_num": 1}