{"0_weights": [[-0.8618520498275757, -0.15763649344444275, 0.18408024311065674, -0.16989748179912567, 0.39517921209335327, -0.7307289242744446, -0.47476327419281006, 0.12242688238620758, -0.650305449962616, 0.19685058295726776, 0.20907540619373322, -0.23135699331760406, -0.06935849040746689, 0.2814609706401825, 0.09966141730546951, -0.09248565137386322], [-0.8529684543609619, 0.05185019224882126, 0.42915692925453186, 0.09364614635705948, -0.7535431981086731, -0.03629583492875099, 0.6653236746788025, 0.01750156283378601, 0.13699044287204742, 0.33835577964782715, 0.18185485899448395, -0.35736703872680664, -0.2650386393070221, 0.7429471015930176, 0.4595620632171631, -0.5140127539634705], [-1.1768962144851685, -0.18330277502536774, -0.2881682813167572, -0.8632047176361084, -0.13533897697925568, 0.44710490107536316, -0.056500695645809174, -0.23383331298828125, -0.2033936232328415, 0.5124932527542114, -0.4071079194545746, 0.7933450937271118, -0.04834475740790367, -0.20798933506011963, 0.6660298109054565, 0.19084616005420685], [0.2512013018131256, -0.07654135674238205, -0.17412973940372467, 0.4053431749343872, -0.37088972330093384, 0.4832494556903839, 0.02503306418657303, 0.892107367515564, -0.5552654266357422, -0.20619438588619232, -0.9758822917938232, 0.3559083938598633, 0.12838159501552582, 0.13836830854415894, -0.46737709641456604, -0.22139935195446014], [0.4844466745853424, -0.8367193937301636, 0.5805631279945374, 0.41952887177467346, -0.1790400594472885, 0.3260539472103119, -0.08503230661153793, 0.1885577291250229, 0.39344650506973267, 0.8578816652297974, 0.8284409642219543, 0.18985427916049957, 0.6880114674568176, -0.4118277132511139, 0.4578447639942169, -0.04981663078069687], [0.7795900106430054, -0.3400046229362488, -0.4162609279155731, -0.512810468673706, 0.5987494587898254, 0.6204070448875427, 0.6187681555747986, -0.5415385961532593, 0.3719329237937927, -0.31094256043434143, -0.061835870146751404, 0.22471459209918976, 0.07122351229190826, 0.8203815817832947, 0.25987106561660767, -0.5262746810913086], [-0.13031868636608124, 0.8253442049026489, -0.07085533440113068, -0.5026863217353821, -0.03336550295352936, 0.3949960172176361, -0.19185148179531097, 0.2297840416431427, -1.0573877096176147, -0.38915398716926575, 0.505799412727356, -0.6033542156219482, 0.20681257545948029, 0.19544456899166107, -0.13353316485881805, 0.5782796144485474], [0.549351692199707, -0.6647087931632996, 0.43388354778289795, 0.1670731008052826, -0.03895508497953415, 0.09493618458509445, 0.7602906227111816, 0.4323497414588928, 0.2759764790534973, 0.21539634466171265, 0.4275458753108978, 0.23242373764514923, -0.9825839996337891, 0.09294646233320236, -0.021872103214263916, 0.43077996373176575], [0.5456829071044922, -0.45075950026512146, 0.35335731506347656, 0.04463088884949684, -0.13750968873500824, 0.21890969574451447, 0.013438687659800053, -0.458352267742157, 0.9243137240409851, -0.4830799102783203, -0.10998515784740448, -0.534412682056427, -0.1493561565876007, -0.5126621723175049, -0.4550464451313019, -0.5666605830192566], [0.565457820892334, -0.5414311289787292, -0.08844304829835892, 0.06528963893651962, -0.8693419694900513, -0.11739057302474976, -0.021421466022729874, 0.39188840985298157, -0.07563532143831253, 0.3079245984554291, 0.072281613945961, -0.00865079928189516, -0.8184865713119507, 0.19579331576824188, 0.24686306715011597, 0.433789998292923], [0.6672998070716858, 0.05545216053724289, -0.34865209460258484, -0.5956255197525024, -0.12098459899425507, 0.009338407777249813, -0.47741714119911194, -0.37826815247535706, -0.15201665461063385, 0.1255509853363037, -0.16124670207500458, -0.09337401390075684, -0.15974566340446472, -0.1581415832042694, -0.22536346316337585, -0.2694244980812073]], "1_weights": [[0.3025590181350708, -3.032763719558716, 0.8122669458389282, 0.14866448938846588, 0.7033915519714355, 0.742806613445282, 0.6164572834968567, -0.28728148341178894, 0.18167278170585632, 0.7414023876190186, -0.06339345872402191, 0.4427153766155243, 0.43789851665496826, 0.13716618716716766, 0.27924489974975586, -0.12122797966003418], [-0.4205528199672699, -0.1819644719362259, 0.5035088062286377, 0.20149357616901398, -0.11687569320201874, -0.11780965328216553, -1.6772743463516235, 0.12233484536409378, 0.029918354004621506, 0.0707060843706131, 0.6625502705574036, -3.5394186973571777, 0.7306675314903259, -0.017749221995472908, 0.06660278141498566, 0.023940684273838997], [0.09340102970600128, -0.555529773235321, 0.0023828349076211452, 0.37569308280944824, 0.4859195649623871, 0.5383616089820862, -0.41622206568717957, 0.16636310517787933, -0.04090748727321625, 0.6431947946548462, 0.15526904165744781, 0.16703379154205322, 0.006923483218997717, -0.2583545744419098, 0.12492630630731583, -0.13986346125602722], [0.211268350481987, 0.47166353464126587, -0.4066867232322693, -0.7312097549438477, 0.14691162109375, 0.13574635982513428, 0.6225554943084717, -0.10198678076267242, 0.47493043541908264, 0.3532886505126953, -0.6269049048423767, -0.1141371950507164, -0.5020493865013123, 0.621084451675415, -0.5468035340309143, 0.07119140774011612], [0.05123111978173256, -0.008172734640538692, 0.03474227711558342, -0.4960472583770752, 0.3832336664199829, -0.5467832684516907, 1.2481186389923096, -0.13391035795211792, 0.06947026401758194, -0.5000529885292053, -0.46424537897109985, 0.9936281442642212, -0.22178290784358978, -0.4630148112773895, -0.1660732924938202, -0.11229792982339859], [0.202681303024292, 0.3335856795310974, 0.009775111451745033, 0.08367910981178284, -0.525645911693573, 0.5635515451431274, 0.12206041067838669, 0.15472562611103058, 0.14261086285114288, -0.3792056441307068, -0.1975155472755432, 0.5727951526641846, 0.4242917597293854, 0.18688148260116577, -0.03306811302900314, -0.20605172216892242], [-0.28248563408851624, 0.5973291397094727, -0.014168123714625835, 0.11326668411493301, -0.49942103028297424, 0.20552298426628113, -0.5218578577041626, -0.22470226883888245, -0.15418925881385803, -0.1327456384897232, 0.04796743020415306, -0.4485624134540558, 0.23191650211811066, 0.22939565777778625, 0.1863134652376175, -0.28920283913612366], [0.03392542153596878, 0.4717220664024353, 0.4723602533340454, 0.3081921339035034, 0.32329851388931274, 0.04350835084915161, 0.24551360309123993, -0.2715299427509308, -0.5834226012229919, 0.47321608662605286, -0.2622945010662079, 0.013586149550974369, 0.42362236976623535, -0.43439844250679016, -0.02149883098900318, 0.3428484797477722], [-1.4103658199310303, -1.0751166343688965, 0.20220403373241425, 0.3941802978515625, 0.9642161726951599, 0.10838686674833298, -1.4901001453399658, -0.12243448197841644, 0.3438898026943207, 0.39294347167015076, -0.14425571262836456, -1.1412911415100098, 0.012565705925226212, 0.9413251280784607, -0.5380786657333374, -0.9221894145011902], [0.26794347167015076, 0.31570959091186523, -0.21540434658527374, -0.1886134296655655, 0.1637120544910431, -0.2509661316871643, 0.5301129817962646, -0.6989167332649231, -0.12327627092599869, 0.47427454590797424, -0.6798688173294067, 0.535861074924469, -0.609489381313324, 0.5618981122970581, -0.12902091443538666, 0.13990597426891327], [-0.31477972865104675, -0.5601995587348938, 0.05836319178342819, 0.48029378056526184, 0.7457572221755981, 0.07516656816005707, 0.08916646987199783, 0.20109011232852936, -0.5564514994621277, -0.19988803565502167, 0.9831423759460449, -0.024869373068213463, 0.517640233039856, 0.27472829818725586, 0.27161118388175964, 0.4069302976131439], [0.49116745591163635, 0.21330614387989044, 0.11872873455286026, -0.28752872347831726, 0.5578327178955078, -0.06584079563617706, 0.33673009276390076, 0.37700891494750977, 0.5415287017822266, 0.20510129630565643, -0.21796537935733795, 0.8906750679016113, 0.21226666867733002, -0.6113061904907227, 0.2944384217262268, 0.9365044832229614], [-0.6707133054733276, -0.45788639783859253, 0.27203354239463806, 0.13506563007831573, 0.24800920486450195, -0.06955567747354507, -1.4721968173980713, -0.04582613706588745, -0.15942372381687164, 0.22067444026470184, 0.37605977058410645, -1.4370837211608887, 0.30380672216415405, 1.2042120695114136, 0.44387581944465637, -0.7392178773880005], [0.33355817198753357, 0.14870573580265045, 0.24620474874973297, 0.322314590215683, -0.14465032517910004, -0.013213356956839561, -0.5280632376670837, 0.1987195611000061, 0.29635077714920044, -0.43796563148498535, -0.28467556834220886, -0.6520743370056152, -0.06115538626909256, -0.5701038837432861, 0.5559374690055847, -0.13235390186309814], [-0.46056538820266724, -0.28209227323532104, 0.18664336204528809, 0.15793083608150482, -0.05034313723444939, 0.43451330065727234, -0.3698780834674835, 0.1481834501028061, 0.5251811146736145, 0.3360442519187927, 0.4075344204902649, -0.3761151134967804, 0.19726800918579102, -0.03332826867699623, 0.2746123671531677, -0.25151941180229187], [1.1364761590957642, -0.5670104622840881, 0.4618205428123474, 0.5774875283241272, -0.2865254580974579, 0.4161243438720703, -0.15891876816749573, 0.7948993444442749, 0.351687490940094, 0.3450455963611603, 0.5366001725196838, -0.4631826877593994, 0.1891418844461441, 0.126453697681427, 0.3408147096633911, 0.8283621072769165]], "2_weights": [[-0.72005295753479, -0.38544172048568726, 0.4236845374107361], [0.9882235527038574, 0.9791855812072754, 0.6461330652236938], [-0.28597208857536316, -0.41224056482315063, -0.05461157485842705], [-0.07076510787010193, -0.03364760801196098, -0.459367960691452], [1.093106746673584, 0.774541437625885, 0.547783613204956], [-0.2766207754611969, -0.5652895569801331, -0.4546666145324707], [2.946521043777466, 2.7720553874969482, 1.6265051364898682], [-0.21938446164131165, 0.12650957703590393, -0.2833051383495331], [-0.6627231240272522, -0.33024704456329346, 0.4042504131793976], [0.3404529094696045, 0.6062078475952148, 0.6225898861885071], [-0.04592907056212425, -0.807962954044342, 0.313707560300827], [2.15976881980896, 2.52714204788208, 2.450728416442871], [-0.41700032353401184, -0.2158437967300415, -0.9291889667510986], [-1.4076731204986572, -1.3171141147613525, -0.9665591716766357], [-0.1971203237771988, -0.20675140619277954, -0.2523926794528961], [0.9752861857414246, 0.41508179903030396, -0.2627318203449249]], "0_bias": [0.06305360049009323, 0.17204561829566956, -0.14855822920799255, 0.19406579434871674, 0.12624821066856384, -0.10010026395320892, -0.06766218692064285, -0.05963051691651344, 0.08662042021751404, -0.17509305477142334, 0.12446427345275879, -0.26106026768684387, -0.07927483320236206, -0.04174589365720749, -0.05640612542629242, 0.29109010100364685], "1_bias": [0.17566773295402527, -0.11301910877227783, 0.0478578545153141, -0.17193610966205597, 0.21503105759620667, -0.03699887543916702, 0.3379223942756653, -0.19163072109222412, 0.14199531078338623, 0.06871339678764343, -0.24668890237808228, 0.22386471927165985, -0.04711524769663811, -0.08653583377599716, -0.006482267286628485, 0.17281241714954376], "2_bias": [-0.15262717008590698, 0.07259148359298706, 0.18333077430725098],"obj_num": 3}