{"0_weights": [[0.26093432307243347, 0.6066955924034119, 0.06638030707836151, -0.12054167687892914, 0.20759862661361694, -0.8431968092918396, -0.35623568296432495, 0.2035370171070099, -0.03877785801887512, -0.24507200717926025, 0.3710331618785858, 0.4188224673271179, -0.2967778742313385, -0.060317620635032654, 0.4286852478981018, -0.2904287874698639], [-0.8481249809265137, 0.33535778522491455, 0.6792681217193604, -0.4699403941631317, -0.4634334444999695, -0.08662296086549759, 1.0021960735321045, 0.27606266736984253, 0.6085596680641174, 0.5636146068572998, 0.35075944662094116, -0.5054401755332947, -0.1906021535396576, 0.7203052639961243, 0.20724983513355255, -0.3828084468841553], [-0.6581129431724548, -0.30101150274276733, -0.5346870422363281, 0.053641755133867264, -0.0026371742133051157, 0.004065859597176313, -0.13808603584766388, -0.3342350423336029, -0.19388547539710999, 0.22611059248447418, -0.5663584470748901, 1.078025460243225, -0.021277235820889473, -0.37814056873321533, 1.070991039276123, 0.7283921837806702], [-0.5125057101249695, 0.9961625933647156, -0.2642989158630371, 0.8750423192977905, 0.3080742061138153, 0.6453002691268921, -0.4811466932296753, 0.08746891468763351, -0.5970134735107422, 0.09015180915594101, -0.5412390232086182, 0.33368054032325745, 0.2767239809036255, -0.17636600136756897, -0.041584208607673645, -0.5288605690002441], [0.26071885228157043, -0.1390245258808136, 0.39996203780174255, 0.5571476221084595, -0.6986253261566162, 0.5099893808364868, 0.053700800985097885, -0.07943300157785416, 0.6360399127006531, 0.5234729647636414, 0.8942263722419739, 0.01708545722067356, 0.39354661107063293, -0.8783568143844604, 0.6751894950866699, -0.16586917638778687], [0.7256101965904236, -0.32235607504844666, -0.020638415589928627, -0.36250293254852295, 0.638344943523407, 0.41125184297561646, 0.2404058873653412, -0.192361518740654, 0.10084359347820282, 0.18138259649276733, 0.32024383544921875, 0.35138630867004395, 0.29659777879714966, 0.4364458918571472, 0.36003878712654114, -0.5427029728889465], [0.07001056522130966, 0.18570296466350555, 0.3586846888065338, 0.3682790696620941, -0.4000820219516754, 0.16244538128376007, -0.36470478773117065, -0.3697258234024048, -1.2513978481292725, -0.48375311493873596, 0.5862741470336914, -0.6094202995300293, 0.012340612709522247, 0.43980294466018677, -0.19771580398082733, 0.5132694244384766], [0.5860920548439026, -0.6397019624710083, 0.7405720949172974, -0.5757415294647217, 0.13538016378879547, 0.2289496809244156, 0.7332127690315247, 0.7255129218101501, -0.4180994927883148, 0.2420315444469452, 0.34791526198387146, 0.19296832382678986, -1.373461365699768, 0.09639640897512436, -0.48386478424072266, -0.070541612803936], [0.42775052785873413, -0.15937423706054688, 0.25883328914642334, -0.3173517882823944, 0.286689430475235, -0.1673443615436554, 0.06850644946098328, 0.17191386222839355, 0.7040845155715942, -0.8532860279083252, -0.09440415352582932, -0.4845922291278839, 0.3789297938346863, -0.5815689563751221, 0.37398529052734375, -0.23487131297588348], [0.680159330368042, -0.819366455078125, 0.4505104124546051, 0.21998581290245056, -0.6525160670280457, -0.46264374256134033, 0.20744971930980682, -0.06483327597379684, 0.32289549708366394, 0.1934744417667389, -0.2498406171798706, 0.6290857791900635, -0.2017938643693924, 0.08266887068748474, -0.2817062437534332, 0.6526210904121399], [0.0980026051402092, 0.2940320372581482, 0.373052179813385, -0.6661118865013123, 0.0937618836760521, 0.12202858924865723, -0.5701354742050171, -0.2801082134246826, -0.06554565578699112, -0.0321030430495739, -0.2577197253704071, 0.23892836272716522, 0.3438493013381958, -0.5092049837112427, -0.429634153842926, 0.31526100635528564]], "1_weights": [[-0.5130433440208435, 0.2530690133571625, 0.9044224619865417, -0.13943248987197876, -0.2938165068626404, 0.37968748807907104, 0.19330742955207825, 0.09389833360910416, 0.09109676629304886, 0.8044270873069763, -0.2320864051580429, -0.23507405817508698, 0.3084668815135956, -0.3888457119464874, 0.21437734365463257, -0.33007708191871643], [-0.31718236207962036, 0.16934873163700104, 0.9233474731445312, 0.05618923529982567, -0.3770366907119751, -0.4238213002681732, -0.432291716337204, -0.4981482923030853, 0.14919063448905945, -0.7711745500564575, 0.33309102058410645, -0.5972990393638611, 0.7263357043266296, -0.3810177445411682, -0.0844922661781311, -0.09858633577823639], [0.7208296656608582, -0.6374847888946533, -0.23793137073516846, 0.10607076436281204, 0.13030606508255005, 0.18740308284759521, -0.08964967727661133, 0.3184415400028229, -0.2638606131076813, 0.1836095154285431, 0.16675105690956116, 0.05359498783946037, -0.6947113275527954, 0.03705669939517975, -0.01645643077790737, -0.2005695104598999], [0.26696357131004333, 0.49243322014808655, -0.4835584759712219, -0.7304694056510925, -0.03330681473016739, 0.570169985294342, -0.08004851639270782, -0.1356867253780365, 0.11667158454656601, 0.3196886479854584, 0.550542414188385, -0.09676248580217361, -0.25712981820106506, 0.8799952864646912, -0.662733256816864, 0.790961742401123], [0.2996470332145691, 0.9507640600204468, -0.6096580028533936, -0.5114424824714661, 0.299241840839386, -0.07853402197360992, 0.535710871219635, 0.3289206922054291, -0.32167351245880127, 0.8441962599754333, 0.4427972435951233, -0.14500275254249573, -0.5189388990402222, 0.5164788365364075, -0.22957386076450348, -0.8109897971153259], [0.8679835796356201, 0.24538739025592804, 0.04453139007091522, 0.32685279846191406, -0.3220893442630768, 0.6331440210342407, -0.23243418335914612, 0.3277856409549713, 0.59764164686203, -0.35797035694122314, 0.22412629425525665, 0.4188295900821686, 0.28160977363586426, -0.45263540744781494, -0.09329166263341904, -0.5069202780723572], [0.34917059540748596, 0.6950072646141052, -0.22004885971546173, -0.27914100885391235, -0.5270259976387024, -0.004824779462069273, -0.43734297156333923, -0.28101465106010437, -0.034571465104818344, -0.3427581787109375, 0.11967933923006058, -1.5960346460342407, -0.0381840355694294, -0.03356754407286644, 0.16015920042991638, -0.5326478481292725], [0.021778613328933716, 0.44028520584106445, -0.045837003737688065, 0.5371828079223633, 0.5092328190803528, -0.265524297952652, 0.7633935809135437, 0.5628645420074463, -0.2822161316871643, 0.654463529586792, -0.09303498268127441, 0.0723276361823082, 0.28083616495132446, 0.02247263304889202, -0.38579753041267395, -0.42709067463874817], [-0.6695631742477417, -1.301816701889038, 0.49663400650024414, 0.4563281834125519, -0.2997080087661743, 0.5479435920715332, -0.36597874760627747, -0.14488880336284637, 0.5719818472862244, 0.11112504452466965, 0.27955296635627747, -1.548684000968933, 1.4325915575027466, 0.39488890767097473, -0.32114696502685547, 1.077664852142334], [-0.14198638498783112, 0.41370391845703125, -0.20276084542274475, -0.8241598010063171, -0.05331123620271683, -0.5779720544815063, 0.13637159764766693, 0.06098856404423714, -0.2764776945114136, 0.419990599155426, -0.058437105268239975, 0.4831169545650482, -0.5913124084472656, 0.4380881190299988, -0.06177511811256409, 0.0709526464343071], [-0.6411707997322083, -0.4940635561943054, -0.1978721171617508, 0.193177729845047, 0.7089500427246094, 0.09422648698091507, 0.3498370051383972, 0.09605308622121811, -0.9233675599098206, -0.3870989680290222, 0.4451410174369812, -0.22975395619869232, 0.27367493510246277, 0.12943759560585022, 0.10482047498226166, 0.5775744318962097], [0.5180103778839111, -0.4411870837211609, -0.01991250365972519, 0.23572410643100739, 0.059860337525606155, -0.006614968180656433, -0.005572011228650808, 0.2967351973056793, 0.2556597888469696, 0.1113799437880516, -0.5181351900100708, -0.25563114881515503, 0.35400500893592834, -0.019507700577378273, 0.9741636514663696, 0.7059493064880371], [0.23299573361873627, 0.21948587894439697, -0.389947772026062, -0.23374347388744354, 1.1594456434249878, -0.38934189081192017, 0.6323571801185608, 0.4002199172973633, -0.02079462632536888, 0.524604856967926, 0.314459890127182, 0.8060188889503479, -0.07220868766307831, 0.4149438142776489, -0.22703823447227478, 0.007572755683213472], [-0.07799370586872101, -0.28149205446243286, 0.09198547154664993, 0.7589823603630066, -0.38097137212753296, 0.15316304564476013, -0.256577730178833, 0.6334510445594788, 0.5625550150871277, -0.6146327257156372, -1.1348155736923218, -0.3219703733921051, 0.2584017813205719, -0.5957664251327515, 0.8159597516059875, 0.2346620261669159], [0.2972932755947113, -0.20074887573719025, 0.23825277388095856, -0.05446751043200493, -0.5125202536582947, 0.6796858310699463, -0.33352014422416687, 0.07389325648546219, 0.692444920539856, 0.22415491938591003, 0.6425256729125977, 0.3429602086544037, 0.512640655040741, -0.194858118891716, 0.5378221273422241, 0.21111713349819183], [-0.3396103084087372, -1.5772192478179932, 0.7203755378723145, 0.9019065499305725, -0.7170687913894653, 1.4578397274017334, -0.22210237383842468, 0.13722258806228638, 0.17116060853004456, -0.8302392363548279, -0.5001643896102905, -1.8191941976547241, -0.5644767880439758, -0.8426285982131958, 0.4108022153377533, -0.07100970298051834]], "2_weights": [[-0.820259690284729, -0.655219316482544, -1.5635701417922974], [1.003974199295044, 0.9961003065109253, 1.7391213178634644], [-0.8871727585792542, -0.9579469561576843, -1.2751351594924927], [0.9178421497344971, 1.1266366243362427, 0.4144953191280365], [0.8761685490608215, 0.5283480882644653, 0.4564249515533447], [-0.6805078983306885, -0.6281822919845581, -1.21897554397583], [0.6096373200416565, 1.0624313354492188, 0.7568904161453247], [0.07984884083271027, 0.31451886892318726, -0.6528066992759705], [-0.9226755499839783, -0.9318711757659912, 0.5641483068466187], [0.6345400214195251, 0.4878729581832886, 0.9843226075172424], [0.47872045636177063, 0.2884410619735718, 0.8905197381973267], [1.6519341468811035, 1.6910314559936523, 1.7834445238113403], [-0.5814033150672913, -0.4730449914932251, -1.4714505672454834], [-1.0708448886871338, -0.9446073174476624, -1.2912964820861816], [-0.6375564336776733, -0.818056583404541, -0.8369361758232117], [0.9061906337738037, 0.797615647315979, 0.9053922295570374]], "0_bias": [0.10177940875291824, 0.13625970482826233, -0.25476598739624023, 0.39185431599617004, -0.21558259427547455, -0.09761101752519608, 0.07156509906053543, 0.41956350207328796, 0.14659950137138367, 0.09611724317073822, 0.28291791677474976, 0.05296170711517334, 0.1395595222711563, 0.07379776984453201, -0.09218311309814453, -0.06825490295886993], "1_bias": [-0.1458955854177475, -0.34169596433639526, -0.19269010424613953, -0.3278442621231079, 0.0494910292327404, -0.10055927187204361, 0.32683607935905457, -0.81562739610672, -0.0013599564554169774, 0.42326903343200684, 0.15223783254623413, 0.22050774097442627, -0.01064677257090807, -0.07448553293943405, -0.06890369951725006, 0.0769885778427124], "2_bias": [0.001504377811215818, 0.19401289522647858, 0.22490569949150085],"obj_num": 2}