{"0_weights": [[-0.3434964418411255, 0.05320730432868004, -0.10353387147188187, -0.46630948781967163, -0.04856827110052109, -0.7102471590042114, -0.5739871263504028, 0.17882703244686127, -0.21465949714183807, -0.05966679006814957, 0.38475874066352844, 0.06313586235046387, -0.3510845899581909, -0.052628446370363235, 0.03246243670582771, -0.3626927137374878], [-0.2603592574596405, 0.3700322210788727, 0.32264289259910583, -0.06702620536088943, -0.6757993698120117, -0.17826999723911285, 0.6354958415031433, -0.29800328612327576, 0.49608972668647766, 0.30588120222091675, 0.2136395126581192, -0.42841973900794983, -0.2827649414539337, 0.6821398138999939, 0.4843139946460724, -0.20899923145771027], [-0.5925026535987854, -0.31686389446258545, 0.2877447307109833, -0.6638193130493164, 0.2288830578327179, 0.38291844725608826, 0.11046510934829712, -0.13185927271842957, -0.14924407005310059, 0.23725640773773193, -0.7459166646003723, 0.6655847430229187, -0.022902145981788635, -0.3084530234336853, 0.3054022192955017, 0.20029166340827942], [0.49021872878074646, 0.3302515745162964, 0.226786270737648, 0.6577915549278259, -0.2556433379650116, 0.5829190611839294, -0.3270833492279053, 0.38771870732307434, -0.4991653859615326, -0.04839881882071495, -0.7164831757545471, 0.3349895477294922, -0.0470510870218277, 0.09071477502584457, -0.04471435397863388, -0.38743919134140015], [0.20219260454177856, 0.06336773931980133, 0.08423876017332077, 0.10936249792575836, -0.3800259232521057, 0.17265477776527405, 0.019994448870420456, 0.044403232634067535, 0.35473284125328064, 0.858880877494812, 0.5747877359390259, 0.11462455242872238, 0.3275541663169861, -0.33446770906448364, 0.2993531823158264, -0.15627031028270721], [0.48989465832710266, -0.6196337342262268, -0.21742835640907288, -0.5738211274147034, 0.5554901957511902, 0.6145387887954712, 0.4439822733402252, -0.6710090637207031, -0.28932827711105347, -0.29301828145980835, 0.5283694267272949, 0.14076422154903412, 0.1884876936674118, 0.841200590133667, 0.7007985711097717, -0.6072102189064026], [0.0002718533796723932, 0.19481207430362701, -0.10245545208454132, -0.1281505525112152, -0.36488571763038635, 0.12156135588884354, -0.29204705357551575, -0.016884220764040947, -0.7295812368392944, -0.5933943390846252, 0.46865135431289673, -0.4638587534427643, 0.12429027259349823, 0.15756875276565552, -0.09200983494520187, 0.5611290335655212], [0.7915247678756714, -0.955656886100769, 0.37277889251708984, -0.11907821893692017, 0.08932175487279892, 0.14726196229457855, 0.6303949356079102, 0.4345724880695343, -0.019916685298085213, 0.0011896869400516152, 0.18260453641414642, 0.29466840624809265, -0.8600359559059143, 0.0029491251334547997, -0.08332344889640808, -0.081098772585392], [0.34269216656684875, -0.6802324056625366, -0.020031871274113655, 0.6823276281356812, 0.2662619352340698, 0.05896257981657982, 0.6735650897026062, -0.30370813608169556, 1.007178544998169, -0.4226821959018707, 0.2584763169288635, -0.7580201029777527, 0.36035606265068054, -0.13268622756004333, -0.13478009402751923, -0.32453033328056335], [0.15338778495788574, -0.4206245541572571, 0.16973526775836945, 0.7320136427879333, -0.8774820566177368, -0.3112596273422241, 0.13113626837730408, 0.25133612751960754, 0.2660902440547943, 0.7149698138237, -0.20611760020256042, 0.30228158831596375, -0.86033034324646, 0.2831914722919464, 0.0018719307845458388, 0.716780424118042], [0.4302999675273895, -0.08019290864467621, 0.3819029927253723, 0.10298863053321838, 0.14758902788162231, 0.5582240223884583, 0.032996803522109985, -0.6617228388786316, -0.56610107421875, 0.07432960718870163, -0.5979969501495361, 0.028294486925005913, 1.111678957939148, -0.20266789197921753, -0.1982412487268448, -0.3010469377040863]], "1_weights": [[-0.060838405042886734, 0.09337346255779266, -0.06950390338897705, 0.0625929906964302, 0.28562188148498535, 0.3540169298648834, 0.4800165295600891, -0.20844817161560059, 0.10461599379777908, 0.4816755950450897, 0.5700361728668213, 0.20612746477127075, 0.30097663402557373, -0.5283195376396179, 0.17723780870437622, 0.1024472787976265], [-1.5187712907791138, -0.36209636926651, 0.7704504132270813, 0.21793757379055023, -0.7306846976280212, 0.16097252070903778, -0.5129842162132263, -0.015502934344112873, 0.5442455410957336, -0.2562207877635956, -0.019068898633122444, -0.661329984664917, 0.32173070311546326, -1.2900879383087158, -0.005442515946924686, -0.16661933064460754], [0.8569750189781189, -0.08722352981567383, -0.10622762888669968, -0.1037096232175827, 0.019312307238578796, 0.2896406352519989, -0.1980258673429489, 0.26593148708343506, 0.3768201172351837, 0.26700374484062195, 0.15482817590236664, 0.31121721863746643, -0.2993636429309845, -0.4040767550468445, 0.056151002645492554, 0.021612750366330147], [0.6540290117263794, 1.3739337921142578, -0.7192577719688416, -0.31684425473213196, 1.1753448247909546, -1.001517653465271, 0.7882537841796875, -1.179450511932373, -1.6823549270629883, 1.3362432718276978, 0.6678831577301025, 0.9005502462387085, -1.6640909910202026, 0.5278698801994324, -1.392348051071167, 1.5434675216674805], [1.5247360467910767, 1.0458277463912964, -0.4510068893432617, -2.012470006942749, 0.6592592000961304, -1.309301733970642, 0.6763574481010437, -1.0222156047821045, -1.3516186475753784, 0.6576939821243286, 0.4748106002807617, 1.1188571453094482, -0.677594780921936, 1.689090609550476, -0.39014309644699097, -0.1132594645023346], [0.6472500562667847, 0.29215455055236816, -0.6278183460235596, 0.04645294323563576, -0.22834160923957825, 0.48198455572128296, 0.05546857416629791, 0.5974607467651367, 0.9009432196617126, -0.2812844514846802, -0.041050564497709274, 0.18759602308273315, 0.48252353072166443, 0.04853808134794235, 0.17531222105026245, -0.55135577917099], [-0.20256154239177704, 0.3911987245082855, 0.009111628867685795, 0.39375123381614685, -0.6063279509544373, 0.37137624621391296, -0.5890146493911743, 0.22329580783843994, 0.7521875500679016, -0.5162901878356934, -0.5381492376327515, -0.7103859186172485, 0.640654444694519, 0.030585501343011856, 0.6167246699333191, -0.4148344099521637], [-0.03073604218661785, 0.4023449718952179, 0.7695354223251343, 0.3212335407733917, 0.5150179862976074, -0.18594548106193542, 0.4974353611469269, -0.3059311807155609, -0.363040566444397, 0.4437520205974579, 0.23530471324920654, 0.003007374005392194, 0.13265188038349152, -0.5027130246162415, -0.20697608590126038, 0.20823721587657928], [0.9396255016326904, 0.7756938338279724, 0.83815598487854, -0.6755864024162292, 0.6765924096107483, -0.41458192467689514, 0.0977470874786377, -0.19872787594795227, -0.31138917803764343, 0.521377444267273, 0.3923678398132324, 0.2841631770133972, -0.8148459196090698, 0.5202017426490784, -0.7045175433158875, 0.5774306058883667], [0.8868374824523926, 0.6670570373535156, -0.17072099447250366, -0.08027240633964539, 0.19710317254066467, -0.5007137656211853, 0.6298417448997498, -0.9700830578804016, -0.6525794863700867, 0.543201208114624, 0.5561832785606384, 0.6992947459220886, -0.8988405466079712, -0.7918618321418762, -0.28491339087486267, 0.3176688849925995], [-0.6013659834861755, -0.4415971338748932, -0.11009727418422699, 0.38535115122795105, 0.6023536324501038, -0.02001536265015602, 0.3016422688961029, -0.014594826847314835, -0.641538143157959, -0.2253112941980362, 0.3216390907764435, -0.26867929100990295, 0.3455028235912323, 0.04647332802414894, 0.22400107979774475, 0.3652568459510803], [0.46549272537231445, 0.7257544994354248, 0.16924667358398438, -0.45054471492767334, 0.6075353026390076, -0.3609091639518738, 0.19447766244411469, -0.14004401862621307, 0.21246390044689178, 0.5471603870391846, 0.19378527998924255, 0.5328935384750366, -0.0498967282474041, 0.5608280897140503, -0.0009653485612943769, 0.6030206084251404], [1.182740569114685, 1.3496581315994263, 0.4465762972831726, -3.094569206237793, 0.8949381113052368, -1.7008205652236938, 0.2871945798397064, -1.4009183645248413, -4.794559478759766, 0.2727758586406708, 0.9483808875083923, 1.494417428970337, -0.6378006339073181, 1.7710143327713013, -0.5427575707435608, 0.4586802124977112], [0.09284365177154541, -0.3010290265083313, 0.2544430196285248, 0.4468088448047638, -0.04806351661682129, 0.03613031283020973, -0.08154918998479843, 0.6817384362220764, 0.33475756645202637, -0.06739740073680878, -0.5413471460342407, -0.3205946981906891, 0.02033253014087677, -0.4606262445449829, 0.6836344599723816, 0.07084193825721741], [-0.13999401032924652, -0.36858752369880676, -0.07641015201807022, 0.19913089275360107, -0.009413512423634529, 0.42974111437797546, -0.008922911249101162, 0.051598042249679565, 0.04701551795005798, 0.31696441769599915, 0.2567150890827179, -0.3009074330329895, 0.1882110834121704, -0.38114312291145325, 0.35676541924476624, 0.1443168669939041], [-0.4451865255832672, -2.5229642391204834, 0.4911818504333496, 1.425716757774353, -0.9985846877098083, 0.9339702725410461, -0.3304988443851471, 0.5288586616516113, 0.8443037867546082, -0.258906751871109, -0.342804491519928, -0.8910043835639954, 0.21637973189353943, -0.27931681275367737, 0.7651671767234802, -0.6700055599212646]], "2_weights": [[-0.3985527753829956, 0.10731101781129837, 0.6936455965042114], [1.1816486120224, 1.4796420335769653, 1.8141547441482544], [-0.935619592666626, -0.7961578369140625, -0.5282489061355591], [-0.14528581500053406, -0.3231392502784729, -0.8516743183135986], [0.907910943031311, 0.6520501971244812, 0.37983885407447815], [-0.40646684169769287, -0.6720337271690369, -0.7067800164222717], [0.6310191750526428, 0.5616574287414551, 0.8505918383598328], [-0.5193966627120972, -0.38426685333251953, -0.13175025582313538], [-1.8156354427337646, -1.7352856397628784, -1.6258649826049805], [0.401298463344574, 0.5322473645210266, 0.46835392713546753], [0.4427713453769684, 0.2265213429927826, 0.12208189070224762], [1.2990015745162964, 1.6789097785949707, 1.6244370937347412], [-0.5222811698913574, -0.5196189880371094, -1.1506415605545044], [-2.082047462463379, -2.394657850265503, -2.8588197231292725], [-0.34342798590660095, -0.4270334541797638, -0.4864831566810608], [0.5971146821975708, 0.3432542085647583, 0.11882410943508148]], "0_bias": [0.1442095935344696, -0.0875411108136177, 0.04835917055606842, -0.053520455956459045, -0.1048496663570404, -0.020345261320471764, -0.0018376013031229377, 0.07403187453746796, 0.03512493520975113, -0.19831597805023193, 0.020564882084727287, -0.06940023601055145, -0.03100336529314518, 0.06228617578744888, -0.014419790357351303, 0.15382035076618195], "1_bias": [0.340119332075119, 0.08260136097669601, -0.04019156098365784, 0.09883704781532288, 0.11317905783653259, 0.03928269073367119, 0.0888003259897232, 0.03237861394882202, -0.01629551500082016, 0.12259003520011902, 0.012326710857450962, 0.0806768462061882, -0.01203151699155569, 0.11943522840738297, 0.12828890979290009, -0.02394900657236576], "2_bias": [-0.10850954055786133, -0.06077921390533447, 0.06804103404283524],"obj_num": 4}