{"0_weights": [[-0.22784459590911865, -0.4748190939426422, -0.15088273584842682, -0.5131754279136658, -0.019622156396508217, -1.0449175834655762, -0.36285850405693054, 0.30103474855422974, -0.1923292875289917, 0.07913275808095932, 0.3811430037021637, -0.20783470571041107, -0.497440904378891, 0.32899239659309387, -0.11209481209516525, -0.1683008223772049], [-0.4503435790538788, 0.23103328049182892, 0.6611202359199524, -0.023003632202744484, 0.16380217671394348, -0.2290482074022293, 0.7703960537910461, -0.12805987894535065, 0.44584745168685913, 0.5907720923423767, 0.1791926622390747, -0.14767099916934967, -0.0005582852754741907, 0.6323148012161255, 0.20952457189559937, -0.2146093100309372], [-0.41335493326187134, 0.05655359849333763, -0.049766022711992264, -0.5288785696029663, 0.3299999535083771, 0.8118351697921753, 0.1774662733078003, -0.18372519314289093, 0.1434236317873001, -0.01899443008005619, -0.48137223720550537, 0.9129223823547363, -0.04669365659356117, -0.5230486989021301, 0.473108172416687, -0.07749664783477783], [-0.1999511420726776, -0.06885039806365967, 0.020817697048187256, 0.5544503331184387, -0.22199857234954834, 0.38359132409095764, -0.08290322870016098, 0.3690871298313141, -0.29222026467323303, 0.062354087829589844, -0.5654527544975281, 0.30262160301208496, 0.25050169229507446, 0.13662326335906982, -0.4649013876914978, -0.2446155697107315], [0.624457836151123, -0.2279885709285736, 0.2827315330505371, 0.15948498249053955, -0.46773746609687805, 0.2281157523393631, -0.11181824654340744, -0.0034285078290849924, 0.6828185319900513, 0.7798030376434326, 0.5860626697540283, 0.04311518743634224, 0.7461697459220886, -0.37866097688674927, 0.0873970091342926, -0.04541516676545143], [0.7979353070259094, -0.11270289868116379, -0.03381308540701866, -0.45210960507392883, 0.12078168243169785, 0.9746419787406921, 0.41661518812179565, -0.7880798578262329, -0.027458244934678078, -0.06623785197734833, 0.3020082414150238, 0.2928253412246704, 0.05301136523485184, 0.30600666999816895, 0.4551100432872772, -0.7634717226028442], [-0.1761406660079956, 0.7194202542304993, -0.0632910430431366, -0.35189008712768555, -0.34301504492759705, 0.5307161211967468, -0.31186166405677795, -0.27114877104759216, -0.7730593085289001, -0.521257221698761, 0.3770139813423157, -0.5992392897605896, 0.2942392826080322, 0.10978518426418304, -0.13066907227039337, 0.5492536425590515], [0.5761869549751282, -1.4874334335327148, 0.558297336101532, 0.0833987221121788, -0.04353785887360573, -0.02539754845201969, 0.9893038868904114, 0.7350131869316101, 0.1875031292438507, 0.1705787032842636, 0.44227126240730286, 0.2120862901210785, -0.5233068466186523, 0.11480730026960373, -0.0677303746342659, 0.3316555321216583], [0.566933274269104, -0.6817557215690613, 0.23197293281555176, -0.01323307678103447, -0.35012808442115784, 0.7423321008682251, 0.4764823317527771, 0.14752228558063507, 0.565336287021637, -0.578706681728363, -0.310194194316864, -0.09456666558980942, -0.31235572695732117, 0.1103346198797226, -0.1862470954656601, -0.4298974573612213], [0.3367862403392792, -0.9282040596008301, -0.14209239184856415, -0.36004531383514404, -0.5649887919425964, -0.1894429326057434, -0.001303377328440547, -0.03939124569296837, 0.627247154712677, 0.17802198231220245, -0.05529218539595604, 0.19674573838710785, -0.6391931176185608, -0.3992006182670593, -0.3774244785308838, 0.3564314544200897], [0.31790056824684143, 0.1869049221277237, 0.3971475660800934, -0.5659845471382141, 0.249119371175766, 0.5018119812011719, -0.44874638319015503, -0.684552788734436, -0.17229247093200684, 0.08246807008981705, -0.07706703990697861, 0.084174245595932, -0.2553158104419708, 0.19092755019664764, -0.08080702275037766, 0.14790359139442444]], "1_weights": [[-0.2128472626209259, -0.0011102628195658326, 0.4141367971897125, 0.1269712597131729, -0.3980644643306732, 0.822210431098938, 0.21993885934352875, 0.05455460026860237, 0.1780998855829239, 0.701361894607544, 0.42732366919517517, -0.026347195729613304, 0.631420910358429, -0.0013396104332059622, 0.3246265649795532, -0.21627578139305115], [-0.321939080953598, 0.4102603495121002, 0.24916444718837738, -0.10760699957609177, -1.2160087823867798, -0.5180596709251404, -0.2510983645915985, -0.6901597380638123, 0.297576904296875, 0.4988461136817932, -0.10824626684188843, 0.07163187861442566, 0.44847607612609863, -0.37302443385124207, -0.21013842523097992, 0.4836207330226898], [0.6544020771980286, 0.19893459975719452, -0.17275290191173553, 0.02392529882490635, -0.6656562685966492, -0.35566648840904236, -0.40148332715034485, -0.38210344314575195, 0.02358771301805973, 0.5803202986717224, 0.21419361233711243, 0.24783742427825928, -1.019853949546814, -0.42015814781188965, -0.661213755607605, 0.6067632436752319], [0.655495285987854, 0.2689143121242523, -0.3335476219654083, 0.0015216940082609653, -0.13132481276988983, -0.3295574486255646, -0.3611438274383545, -0.4957650303840637, -0.43943512439727783, 0.017441853880882263, -0.6007896661758423, 0.3521658480167389, -0.6178528070449829, 0.4715530276298523, -0.5454870462417603, 0.4038408696651459], [0.12357578426599503, 0.0034696811344474554, -0.16099095344543457, -0.7646679282188416, 0.1808437556028366, -0.0643564760684967, 0.28490081429481506, 0.0131031833589077, -0.1429920196533203, 0.473482608795166, -0.23629294335842133, 0.033507831394672394, -0.18169686198234558, 0.01904122717678547, -0.12382752448320389, 0.00902138277888298], [0.6440342664718628, 0.6024134159088135, -0.2257324606180191, -0.3198701739311218, -0.2541951835155487, 0.47465193271636963, -0.04539946839213371, 0.5803667306900024, 0.6985976099967957, 0.1948830485343933, -0.5237520337104797, 0.556844174861908, 0.32810062170028687, -0.08530019223690033, -0.030225712805986404, -0.11301687359809875], [0.1491253674030304, 0.6624082922935486, -0.11897800862789154, 0.05339263752102852, -0.954591691493988, -0.012630920857191086, -0.3052517771720886, -0.2997927665710449, -0.13195699453353882, -0.056909140199422836, 0.4431030750274658, -0.2603394389152527, 0.06512195616960526, 0.08399496227502823, 0.04286859184503555, 0.16489821672439575], [0.1854012906551361, 0.7237608432769775, 0.37241315841674805, 0.2520805597305298, 0.6081520915031433, -0.5563904047012329, 0.14544589817523956, -0.8311424851417542, -0.0766294002532959, 0.44523540139198303, -0.3222730755805969, 0.26276132464408875, -0.128498837351799, -0.18241901695728302, -0.6133526563644409, 0.4789416491985321], [-0.14686939120292664, -0.27993038296699524, 0.5200807452201843, 0.6492620706558228, -0.1593310385942459, 0.526826798915863, -0.4608243405818939, 0.5300604701042175, -0.1321732997894287, 0.21919110417366028, -0.21999655663967133, -0.09466739743947983, 0.4165428876876831, 0.6562116146087646, 0.046704553067684174, -0.029914308339357376], [0.4711860716342926, 0.32582107186317444, -0.28117892146110535, 0.362191379070282, -0.06430479139089584, -0.1953035593032837, 0.04244894161820412, -0.7923510074615479, -0.054543282836675644, 0.23247568309307098, -0.010685311630368233, 0.326755166053772, -0.8920663595199585, -0.011898894794285297, -0.4141179919242859, 0.3601349890232086], [-0.506895899772644, -0.3815901577472687, 0.05916069075465202, 0.25133803486824036, 0.5918473601341248, 0.030704980716109276, 0.09158030897378922, -0.2990124225616455, -0.4118277132511139, -0.4016748070716858, 0.5138807892799377, -0.19637878239154816, 0.1781388819217682, 0.35764533281326294, 0.12325839698314667, 0.3055684268474579], [0.38450050354003906, 0.5118005275726318, 0.1938832700252533, -0.2630918622016907, 0.42626309394836426, -0.04237889498472214, -0.23656512796878815, 0.41681188344955444, 0.349544882774353, 0.5476801991462708, -0.23209354281425476, 0.5386462807655334, 0.17319539189338684, 0.026976948603987694, 0.13707765936851501, 0.6577728390693665], [0.023496437817811966, -0.16572949290275574, 0.32929450273513794, 0.41292083263397217, 0.24223391711711884, -0.05858348682522774, -0.4645861089229584, 0.6073882579803467, -0.0407988466322422, -0.9103697538375854, -0.3411635458469391, 0.1456996500492096, 0.3094402253627777, 0.553756833076477, 0.37403228878974915, -0.5042441487312317], [0.02533147484064102, 0.05281470715999603, 0.21345479786396027, 0.6811568140983582, -0.2908061146736145, -0.08346949517726898, -0.351664274930954, 0.48666974902153015, 0.22905467450618744, -0.20444566011428833, -0.06757370382547379, -0.27782419323921204, -0.009291577152907848, -0.029502850025892258, 0.4617306888103485, 0.07662887871265411], [-0.2835354208946228, -0.19744674861431122, 0.22959360480308533, -0.05734921619296074, -0.4485671818256378, 0.43661561608314514, -0.15886268019676208, 0.17085033655166626, -0.0705825611948967, 0.4369967579841614, 0.6204949617385864, -0.06780488789081573, 0.1965896636247635, -0.08025622367858887, 0.24702323973178864, -0.047861211001873016], [-1.2753201723098755, -1.2726784944534302, 0.6279987692832947, 0.3344576358795166, -1.3478362560272217, -0.09032024443149567, -0.1840561479330063, 0.18878641724586487, -0.37970268726348877, -0.5326824188232422, 0.11321105062961578, -0.5563876628875732, -0.12149829417467117, 0.16429153084754944, 0.8555837273597717, -0.45354801416397095]], "2_weights": [[0.5771195292472839, 0.5052969455718994, 0.4448768198490143], [0.6000746488571167, 0.5798589587211609, 0.46871766448020935], [-0.420259952545166, -0.5004240274429321, -0.25685426592826843], [-0.05220910161733627, -0.19184234738349915, -0.6299607157707214], [2.1319096088409424, 2.5709738731384277, 2.6348137855529785], [-0.5047590136528015, -0.6697155237197876, -0.5712852478027344], [0.14713096618652344, 0.19610077142715454, 0.3552238345146179], [-0.4807361364364624, -0.48421239852905273, -0.8129603266716003], [-0.22925081849098206, -0.18326042592525482, 0.5393558740615845], [0.7122803926467896, 0.8648162484169006, 0.7401688694953918], [0.5891085267066956, -0.5905559659004211, -0.27372267842292786], [0.028431277722120285, 0.45272281765937805, 0.49637603759765625], [-0.6536233425140381, -0.7252578735351562, -1.0243796110153198], [-0.5814738869667053, -0.5455307364463806, -0.05630667880177498], [0.05354943498969078, -0.26139140129089355, -0.6782761216163635], [0.6056445240974426, 0.17939047515392303, 0.0004011387936770916]], "0_bias": [0.21983793377876282, 0.05855106934905052, -0.022787541151046753, 0.1300913244485855, 0.1684618443250656, 0.06697171181440353, 0.06361719220876694, 0.052085861563682556, 0.19174672663211823, -0.1346990466117859, 0.10786399990320206, 0.018313860520720482, 0.17997896671295166, 0.017474684864282608, -0.016565097495913506, 0.06969031691551208], "1_bias": [0.07285206019878387, 0.0633893832564354, 0.05086929351091385, 0.14717701077461243, 0.09371700882911682, 0.08934897184371948, -0.14321976900100708, -0.0855623111128807, 0.12057923525571823, 0.1144166886806488, -0.4709484577178955, 0.10313118249177933, 0.0023026173003017902, 0.11306363344192505, 0.09727504849433899, -0.032867081463336945], "2_bias": [0.04706713184714317, 0.04004672169685364, -0.03749237209558487],"obj_num": 2}