{"0_weights": [[-0.2213113158941269, -0.49252763390541077, -0.15825121104717255, -0.5285279750823975, -0.03509296849370003, -1.0548079013824463, -0.3748926818370819, 0.2947557270526886, -0.18557754158973694, 0.07437726110219955, 0.39638563990592957, -0.22166851162910461, -0.48957517743110657, 0.34825557470321655, -0.11370060592889786, -0.15333439409732819], [-0.46348482370376587, 0.23490914702415466, 0.6592089533805847, -0.01993034966289997, 0.15416191518306732, -0.24657146632671356, 0.7732464075088501, -0.13551265001296997, 0.4435155391693115, 0.5839143991470337, 0.19409210979938507, -0.14775033295154572, 0.008396897464990616, 0.643250048160553, 0.21761585772037506, -0.20688094198703766], [-0.4048052430152893, 0.05223086103796959, -0.057162314653396606, -0.5225670337677002, 0.3417637348175049, 0.811798632144928, 0.15943053364753723, -0.1910673975944519, 0.15312166512012482, -0.030120404437184334, -0.4669395983219147, 0.9025962948799133, -0.03433689847588539, -0.5234484672546387, 0.4939241409301758, -0.06669021397829056], [-0.19830362498760223, -0.07260745763778687, 0.01345127634704113, 0.5467603206634521, -0.22587159276008606, 0.38302114605903625, -0.08679233491420746, 0.35620632767677307, -0.29433712363243103, 0.05960574746131897, -0.5618477463722229, 0.30415642261505127, 0.26018258929252625, 0.15738679468631744, -0.4716728925704956, -0.23987233638763428], [0.6369984149932861, -0.21834982931613922, 0.2762051522731781, 0.15188629925251007, -0.47659578919410706, 0.21846817433834076, -0.11751677840948105, 3.383236253284849e-05, 0.7022879123687744, 0.7781347036361694, 0.5889536142349243, 0.04603956639766693, 0.7609487771987915, -0.37097933888435364, 0.10155490785837173, -0.0291433148086071], [0.8147083520889282, -0.12217377126216888, -0.039640020579099655, -0.45160457491874695, 0.12082664668560028, 0.9731592535972595, 0.40861642360687256, -0.7941340804100037, -0.018674025312066078, -0.07798615097999573, 0.3170800805091858, 0.27242282032966614, 0.054931797087192535, 0.30353274941444397, 0.4686415493488312, -0.767482340335846], [-0.170868918299675, 0.7087543606758118, -0.07386691868305206, -0.35420793294906616, -0.3609462082386017, 0.5224829316139221, -0.3254259526729584, -0.2821037471294403, -0.7686187624931335, -0.5332884788513184, 0.38904526829719543, -0.6110926270484924, 0.3123748004436493, 0.12355200946331024, -0.1214543953537941, 0.5710306763648987], [0.5981037616729736, -1.5071536302566528, 0.5547216534614563, 0.07701253890991211, -0.03835529461503029, -0.028680123388767242, 0.9909794330596924, 0.7333818674087524, 0.20920008420944214, 0.1569727659225464, 0.4554348886013031, 0.1848771870136261, -0.5255764126777649, 0.11365150660276413, -0.057290006428956985, 0.3512420952320099], [0.55504310131073, -0.6560887694358826, 0.24279727041721344, -0.008424472063779831, -0.3426138758659363, 0.752893328666687, 0.47039562463760376, 0.15782275795936584, 0.5557885766029358, -0.5855512619018555, -0.3026871383190155, -0.10221129655838013, -0.311264306306839, 0.10773932188749313, -0.18383416533470154, -0.40655070543289185], [0.324529767036438, -0.925162136554718, -0.15136082470417023, -0.36012032628059387, -0.5692848563194275, -0.18113644421100616, -0.0013451535487547517, -0.048602424561977386, 0.6125814318656921, 0.18781816959381104, -0.04506191238760948, 0.21582192182540894, -0.6187552809715271, -0.3822038769721985, -0.3485698103904724, 0.341325581073761], [0.33014556765556335, 0.17553234100341797, 0.4001047611236572, -0.5803672671318054, 0.22596131265163422, 0.5007423758506775, -0.4669962227344513, -0.688934862613678, -0.16631381213665009, 0.08074290305376053, -0.06524685770273209, 0.08033329993486404, -0.25415658950805664, 0.20695318281650543, -0.08475051075220108, 0.16044598817825317]], "1_weights": [[-0.2119033932685852, -0.003107462078332901, 0.41241639852523804, 0.1280193328857422, -0.40272513031959534, 0.8340091109275818, 0.21993885934352875, 0.058752913028001785, 0.14905241131782532, 0.7168992757797241, 0.43366754055023193, -0.028381112962961197, 0.6401006579399109, -0.006408383138477802, 0.32727041840553284, -0.20322172343730927], [-0.30410391092300415, 0.42624741792678833, 0.23535925149917603, -0.12454283982515335, -1.2226265668869019, -0.4998876452445984, -0.2510983645915985, -0.6712279319763184, 0.31745660305023193, 0.49988535046577454, -0.1403670310974121, 0.08975500613451004, 0.4338960349559784, -0.38815292716026306, -0.21007239818572998, 0.48151901364326477], [0.6574972867965698, 0.1977808028459549, -0.15854550898075104, 0.027680089697241783, -0.6824555397033691, -0.3574129045009613, -0.40148332715034485, -0.39116746187210083, 0.006541202310472727, 0.5755885243415833, 0.1906428337097168, 0.23266489803791046, -1.0360609292984009, -0.4055626690387726, -0.6558911800384521, 0.6068783402442932], [0.6610090136528015, 0.302448570728302, -0.3612767159938812, -0.04088333994150162, -0.10261747986078262, -0.35514870285987854, -0.3611438274383545, -0.4892323315143585, -0.4486495554447174, 0.009224247187376022, -0.5493531823158264, 0.3844946622848511, -0.6612005233764648, 0.4512260854244232, -0.575709342956543, 0.442626029253006], [0.16040444374084473, 0.05097314342856407, -0.2034245729446411, -0.818482518196106, 0.1803276091814041, -0.040684059262275696, 0.28490081429481506, -0.010953543707728386, -0.1566551774740219, 0.5189080834388733, -0.2027854323387146, 0.055902447551488876, -0.20348019897937775, -0.03062431514263153, -0.13981692492961884, 0.07552284002304077], [0.6460644602775574, 0.5988800525665283, -0.2180563360452652, -0.3129969835281372, -0.25909513235092163, 0.48067986965179443, -0.04539946839213371, 0.5866612792015076, 0.7251099348068237, 0.20040997862815857, -0.5142898559570312, 0.5487053990364075, 0.33179739117622375, -0.0818595215678215, -0.010644880123436451, -0.11228755861520767], [0.14357894659042358, 0.6629239320755005, -0.11510547250509262, 0.05556776747107506, -0.9650323390960693, -0.019367264583706856, -0.3052517771720886, -0.3150465190410614, -0.1328980177640915, -0.05390328913927078, 0.4671148955821991, -0.255560040473938, 0.06335993111133575, 0.08584365993738174, 0.038475263863801956, 0.17129983007907867], [0.19444838166236877, 0.7439805269241333, 0.35970422625541687, 0.25284022092819214, 0.6181039214134216, -0.5687958002090454, 0.14544589817523956, -0.8347217440605164, -0.04125861078500748, 0.4477021396160126, -0.3022458851337433, 0.2813476622104645, -0.14466466009616852, -0.20214572548866272, -0.6244148015975952, 0.5054934024810791], [-0.14427532255649567, -0.27318713068962097, 0.5089482069015503, 0.6383166909217834, -0.15559165179729462, 0.5141362547874451, -0.4608243405818939, 0.5232405066490173, -0.13865390419960022, 0.22555020451545715, -0.24875600636005402, -0.0626756027340889, 0.40120142698287964, 0.6478866934776306, 0.0386015959084034, -0.01984330639243126], [0.4624710977077484, 0.33142784237861633, -0.2780925929546356, 0.3804984390735626, -0.06960542500019073, -0.18666747212409973, 0.04244894161820412, -0.772452175617218, -0.061374690383672714, 0.24279293417930603, -0.037076301872730255, 0.3255902826786041, -0.8968062996864319, -0.01679929532110691, -0.4442533850669861, 0.3706985414028168], [-0.5176324844360352, -0.38876524567604065, 0.07592275738716125, 0.25791335105895996, 0.5855762362480164, 0.04723422974348068, 0.09158030897378922, -0.30510175228118896, -0.39525848627090454, -0.40557360649108887, 0.5038257241249084, -0.20433777570724487, 0.1869758665561676, 0.3729868233203888, 0.12886831164360046, 0.2792745530605316], [0.38410574197769165, 0.504463255405426, 0.19380280375480652, -0.2718961536884308, 0.4171389043331146, -0.035643771290779114, -0.23656512796878815, 0.42309004068374634, 0.34881359338760376, 0.5390034914016724, -0.3284997045993805, 0.5568927526473999, 0.1807927042245865, 0.025582032278180122, 0.12303275614976883, 0.6530550718307495], [0.015559060499072075, -0.1514381617307663, 0.32241132855415344, 0.4233665466308594, 0.24775756895542145, -0.04813983663916588, -0.4645861089229584, 0.6294437050819397, -0.0378948338329792, -0.9067822694778442, -0.2626047432422638, 0.14382056891918182, 0.28653064370155334, 0.5445046424865723, 0.3903580605983734, -0.4928765594959259], [0.009801224805414677, 0.041511863470077515, 0.23735512793064117, 0.6961398124694824, -0.30448582768440247, -0.08203502744436264, -0.351664274930954, 0.48000213503837585, 0.23367927968502045, -0.22269639372825623, -0.051500868052244186, -0.30446580052375793, -0.004524337127804756, -0.012255851179361343, 0.45991501212120056, 0.05936223268508911], [-0.2829672396183014, -0.1995401829481125, 0.23709620535373688, -0.07317673414945602, -0.4509196877479553, 0.46559926867485046, -0.15886268019676208, 0.17312686145305634, -0.056595329195261, 0.4380902349948883, 0.6242974996566772, -0.0740506649017334, 0.20801514387130737, -0.07021867483854294, 0.25696706771850586, -0.0667581558227539], [-1.3056613206863403, -1.2464638948440552, 0.5883254408836365, 0.2572415769100189, -1.379840612411499, -0.1607963889837265, -0.1840561479330063, 0.222219780087471, -0.427858829498291, -0.49215370416641235, 0.07935559004545212, -0.4977729022502899, -0.13611529767513275, 0.1383955478668213, 0.815835177898407, -0.41288647055625916]], "2_weights": [[0.6005603671073914, 0.5083995461463928, 0.44379502534866333], [0.6127586960792542, 0.5846365094184875, 0.4669475853443146], [-0.4171310067176819, -0.4782973825931549, -0.24543355405330658], [-0.06854478269815445, -0.2022959142923355, -0.6384236216545105], [2.177579641342163, 2.6343936920166016, 2.6942861080169678], [-0.5222465395927429, -0.6743262410163879, -0.5779404044151306], [0.14713096618652344, 0.19610077142715454, 0.3552238345146179], [-0.5139658451080322, -0.49907398223876953, -0.8296557068824768], [-0.24442696571350098, -0.1764020323753357, 0.548390805721283], [0.7278542518615723, 0.8766286969184875, 0.7647752165794373], [0.5903251767158508, -0.594697117805481, -0.30548688769340515], [0.05106524005532265, 0.4656178057193756, 0.504256546497345], [-0.6711517572402954, -0.7376909852027893, -1.0343539714813232], [-0.5662342309951782, -0.5430800318717957, -0.034827906638383865], [0.06037003546953201, -0.2689804136753082, -0.7066078782081604], [0.5918112397193909, 0.18513193726539612, -0.008115530014038086]], "0_bias": [0.19815047085285187, 0.06608333438634872, -0.0018006619065999985, 0.1602921038866043, 0.20854684710502625, 0.08546769618988037, 0.07767265290021896, 0.0869743674993515, 0.16420847177505493, -0.11099089682102203, 0.08033634722232819, 0.0543111152946949, 0.1536490023136139, 0.0017128470353782177, -0.0280461385846138, 0.03246891871094704], "1_bias": [0.09533271193504333, 0.09641551971435547, 0.02003285475075245, 0.10839210450649261, 0.0942983329296112, 0.061288658529520035, -0.14321976900100708, -0.1091756671667099, 0.12586767971515656, 0.1468062400817871, -0.49584105610847473, 0.14205843210220337, -0.03267799690365791, 0.07887417823076248, 0.06691254675388336, -0.002904171124100685], "2_bias": [0.08319417387247086, 0.06960133463144302, -0.006123669445514679],"obj_num": 2}