{"0_weights": [[0.12718914449214935, 0.2776782512664795, 0.4278534948825836, -0.21577821671962738, 0.2516908049583435, -1.101750135421753, -0.29740339517593384, 0.07234074920415878, -0.15125960111618042, -0.19188234210014343, 1.0901459455490112, 0.006728829815983772, -0.29075321555137634, 0.14461249113082886, 1.0916484594345093, -0.16646353900432587], [-0.9061143398284912, 0.8397040963172913, 0.5959357619285583, 0.49711498618125916, -0.2568093538284302, 0.0019283926812931895, 0.9224171042442322, -0.34173208475112915, 0.3565213978290558, 0.515021026134491, -0.044003624469041824, -0.4427708089351654, -0.13805319368839264, 0.802978515625, 0.4238777756690979, -0.5797457695007324], [-0.7490325570106506, 0.1096077412366867, 0.06865745782852173, -0.5391784906387329, 0.4940215051174164, 0.2802746593952179, 0.0640837699174881, 0.06159073859453201, -0.3922172784805298, 0.7594193816184998, -0.7329189777374268, 0.707547664642334, -0.17479555308818817, -0.4226115643978119, 0.5091837048530579, 0.2785261869430542], [0.15699096024036407, 0.3198399245738983, 0.11994455009698868, 0.5432729721069336, -0.27895185351371765, 0.7361199259757996, -0.303282231092453, 0.37785378098487854, -0.5160912871360779, -0.19908860325813293, 0.33371758460998535, 0.5800675749778748, 0.5039687752723694, 0.09114536643028259, -0.3110939860343933, -0.6891856789588928], [1.0096995830535889, 0.13876046240329742, -0.27179378271102905, 0.14925014972686768, -0.4712271988391876, 0.34298670291900635, -0.37107259035110474, 0.05908334255218506, 0.8707177639007568, 0.7093300223350525, 0.5761420726776123, -0.04232083633542061, 0.6073927879333496, -0.48040908575057983, 0.12555190920829773, 0.10743306577205658], [0.30372756719589233, -0.3615725040435791, 0.021904343739151955, -0.9140101075172424, 0.4220203757286072, 0.6570937037467957, 0.20273596048355103, -1.0702205896377563, 0.05170099437236786, -0.2871542274951935, 0.5611785054206848, 0.31198984384536743, 0.03759826347231865, 0.6931889653205872, 0.18160517513751984, -0.6296961307525635], [-0.14836524426937103, -0.02933434210717678, 0.021647606045007706, -0.2926272451877594, -0.249257430434227, 0.6501409411430359, -0.38190895318984985, -0.15902917087078094, -0.9304990768432617, -0.29472100734710693, 0.38301315903663635, -0.3831116557121277, 0.3425690233707428, 0.36679893732070923, 0.30490338802337646, 0.8059594631195068], [0.04759630560874939, -1.2228362560272217, 0.18397697806358337, 0.3512774109840393, 0.42902377247810364, 0.6287930607795715, 0.6489022374153137, 0.7235245704650879, 0.2865007817745209, 0.28724417090415955, 0.777988612651825, 0.06589315086603165, -0.869085967540741, 0.2538597881793976, -0.10379063338041306, 0.38997772336006165], [0.2590341866016388, -0.2628316879272461, 0.4028092622756958, 0.05545340105891228, -0.4199938476085663, 0.12952390313148499, 0.4250698983669281, 0.13985702395439148, 0.06344533711671829, -0.14775027334690094, -0.011442169547080994, -0.1604381650686264, -0.31456175446510315, -0.12174493819475174, 0.0930703654885292, -0.24071244895458221], [-0.09546086937189102, -0.5545802712440491, -0.14592242240905762, -0.05062589421868324, -0.22078417241573334, -0.12334959208965302, -0.1497444063425064, -0.28725069761276245, 0.009953117929399014, 0.15256240963935852, -0.055189624428749084, 0.16899064183235168, -0.38014692068099976, 0.08991388231515884, -0.04159189388155937, 0.5091134309768677], [0.4342127740383148, -0.08428018540143967, 0.46973955631256104, -0.691257655620575, 0.12034256011247635, 0.06585931032896042, -0.23887622356414795, -0.2389007955789566, -0.8093942403793335, 0.07862601429224014, 0.01708241179585457, 0.38003990054130554, -0.058270394802093506, -0.006194771267473698, -0.021593153476715088, 0.270797997713089]], "1_weights": [[0.4415819048881531, 0.36526650190353394, 0.42800548672676086, 0.2017928957939148, 0.6000732779502869, 0.4544801414012909, 0.8385303616523743, 0.06151166930794716, -0.0034021995961666107, 0.15193921327590942, -0.044909264892339706, 0.5650957822799683, 0.5324348211288452, -0.007532828953117132, 0.320243239402771, -0.05888206511735916], [-0.21811550855636597, -0.003954889252781868, 0.3152036666870117, -0.24192291498184204, -1.3961111307144165, -0.44147565960884094, -0.5385528802871704, -0.4872593283653259, 0.14245447516441345, 0.1687755137681961, 0.08295837789773941, -1.0908584594726562, 0.2195809930562973, -0.2587571144104004, -0.4185866117477417, 0.040662072598934174], [0.3639819622039795, -0.35051897168159485, -0.2405538409948349, 0.02475806325674057, -0.8225008249282837, 0.28885701298713684, -0.5028824806213379, 0.21949204802513123, -0.00181024509947747, -0.10003554075956345, 0.16685952246189117, -0.18325306475162506, -0.431233674287796, -0.36801841855049133, -0.16032950580120087, -0.01614212617278099], [0.5223022699356079, 0.20905844867229462, -0.795958399772644, -0.14772385358810425, 1.2989131212234497, -0.2615682780742645, 0.6841752529144287, -0.5996149182319641, -0.2955823242664337, 0.9029409885406494, 0.2472868710756302, 0.5545362234115601, -0.65579754114151, -0.05436840280890465, -0.6139793395996094, 0.691580593585968], [-0.14587044715881348, 0.26580527424812317, 0.2875939607620239, -0.18987886607646942, 0.4737994372844696, -0.2156400829553604, 0.6109527349472046, 0.06251517683267593, -0.29145610332489014, 0.4666453003883362, 0.027134904637932777, 0.23760376870632172, -0.39999479055404663, 0.0020392208825796843, -0.15643063187599182, 0.040052320808172226], [0.8676261305809021, 0.535514235496521, -0.062165211886167526, 0.1253284513950348, -0.1678430438041687, 0.5188107490539551, 0.297003835439682, 0.6136048436164856, -0.12977828085422516, -0.09935697913169861, -0.39928895235061646, 0.7089274525642395, 0.46013328433036804, 0.2954191267490387, -0.1208166852593422, -0.6990846991539001], [0.19945748150348663, -0.027425624430179596, -0.42913272976875305, 0.17355844378471375, -0.48753032088279724, 0.10501230508089066, -0.6741600036621094, -0.1859380006790161, 0.0987137109041214, -0.5748652815818787, 0.021127212792634964, -0.6805028319358826, 0.1876913458108902, 0.112542062997818, 0.2639786899089813, -0.0993705466389656], [0.17378070950508118, 0.6324647068977356, 0.08629422634840012, 0.5957958698272705, 0.823776364326477, 0.15742066502571106, 0.4210337996482849, 0.030282098799943924, 0.031671393662691116, 0.6557317972183228, 0.1796296089887619, 0.1494942307472229, 0.02232448011636734, 0.05475558340549469, 0.13115286827087402, 0.40914878249168396], [-0.2948216199874878, -0.5153359174728394, 0.6816762089729309, 0.32571327686309814, -1.783776044845581, 0.3571830689907074, -0.7251227498054504, 0.4490359425544739, 0.3975842595100403, -0.47724586725234985, -0.28481584787368774, -0.5230504274368286, 0.27830803394317627, 0.40192508697509766, 0.07138240337371826, -0.6082425713539124], [0.6106316447257996, -0.00832072738558054, -0.04380100592970848, -0.048810336738824844, -0.2546251714229584, 0.00879151001572609, 0.2291359007358551, -0.4438544511795044, 0.13895100355148315, 0.2448219507932663, 0.5657049417495728, 0.06608213484287262, -0.4291346073150635, 0.49006015062332153, -0.15506595373153687, -0.515654444694519], [-0.3020143508911133, -0.39998510479927063, 0.3566313683986664, 0.4760497808456421, 0.639640748500824, 0.23878979682922363, 0.3610425889492035, 0.15247449278831482, -0.3923701345920563, -0.35509076714515686, 0.5081236362457275, -0.08708326518535614, 0.4604308307170868, 0.4748518168926239, 0.5032666921615601, 0.4524260461330414], [-0.07646661251783371, 0.13297021389007568, -0.2563914656639099, -0.2099514603614807, 0.4188641905784607, -0.12768064439296722, 0.20568010210990906, -0.06004852429032326, -1.9922245740890503, 0.3953096866607666, 0.028128713369369507, 0.3079545795917511, -0.06424836069345474, 0.05487340688705444, -0.12153027951717377, 0.05414556711912155], [0.11323653161525726, -0.49699851870536804, 0.1138073280453682, 0.2558111548423767, -0.8278782367706299, -0.3025575578212738, -0.7297318577766418, 0.443647176027298, -0.07306989282369614, -0.6501803398132324, -0.019803911447525024, -0.2460707128047943, 0.31341445446014404, 0.514894425868988, 0.2679072618484497, -0.3180815279483795], [0.215948686003685, 0.18768197298049927, 0.12311198562383652, 0.7426681518554688, -0.14207223057746887, 0.00916445255279541, -0.5810689926147461, 0.5477635264396667, 0.40568479895591736, -0.2212914526462555, -0.33615797758102417, -0.31983739137649536, 0.09236415475606918, 0.003797698998823762, 0.6685177683830261, 0.41597238183021545], [-0.43852221965789795, -0.1631685495376587, 0.03819699212908745, 0.12251105904579163, -0.13072431087493896, 0.42064979672431946, 0.159597247838974, -0.18114721775054932, 0.5687653422355652, 0.451588898897171, 0.9553545117378235, -0.024865301325917244, -0.05566522479057312, -0.2757924199104309, 0.025457551702857018, 0.46495020389556885], [0.29740282893180847, -0.7986990809440613, 0.6532923579216003, 0.1905720978975296, -2.186537265777588, 0.34557685256004333, -1.0775781869888306, -0.10807467997074127, -0.14216002821922302, -0.1496928483247757, -0.05947872996330261, -0.9725534319877625, -0.15871332585811615, -0.09404455870389938, -0.26144903898239136, -0.2198168784379959]], "2_weights": [[-0.5315661430358887, -0.0330396443605423, 0.11796512454748154], [0.34732940793037415, 0.5307152271270752, 0.6421746611595154], [-0.5409620404243469, -0.6881617307662964, -0.829845666885376], [0.013332183472812176, -0.1226823553442955, -0.5679988861083984], [6.2744526863098145, 4.474911689758301, 2.987169027328491], [-0.3021925985813141, -0.5807253122329712, -0.4313628673553467], [2.1983225345611572, 1.8514602184295654, 2.2147417068481445], [-0.24755464494228363, -0.19485606253147125, -0.3093734085559845], [-1.6191074848175049, -1.5938900709152222, -1.598319411277771], [0.6398741006851196, 0.7493846416473389, 0.8222740888595581], [0.29179683327674866, -0.5562593340873718, 0.0009521351312287152], [1.1800192594528198, 1.2725669145584106, 1.4205876588821411], [-0.63252192735672, -0.6776512861251831, -0.7338908910751343], [-0.524610698223114, -0.5845131278038025, -0.025722505524754524], [-0.24188002943992615, -0.39859580993652344, -0.6981184482574463], [0.9612731337547302, 0.7102532386779785, 0.11423268914222717]], "0_bias": [0.13386115431785583, -0.1306668519973755, -0.2554578185081482, 0.11564821749925613, -0.02178138867020607, -0.25821202993392944, -0.07723020762205124, 0.05374251678586006, 0.20713743567466736, -0.18222546577453613, -0.19087834656238556, 0.023818839341402054, 0.04164702445268631, 0.1204776018857956, -0.2758130431175232, 0.23843249678611755], "1_bias": [-0.02958265319466591, 0.2518611252307892, -0.22133584320545197, -0.0733557939529419, 0.2772076427936554, -0.2564176023006439, -0.011618728749454021, -0.326907753944397, -0.4986991286277771, 0.3036927580833435, -0.47879478335380554, 0.1571345180273056, -0.15300500392913818, -0.2150227427482605, -0.36273616552352905, 0.27772215008735657], "2_bias": [0.26234865188598633, 0.3883441984653473, 0.13749372959136963],"obj_num": 4}