{"0_weights": [[-0.48095574975013733, -0.16592209041118622, -0.19669023156166077, -0.08826228976249695, 0.08513324707746506, -0.5912482142448425, -0.3567052185535431, 0.25993847846984863, 0.14572258293628693, -0.22120432555675507, 0.5025691986083984, -0.24636787176132202, -0.22484895586967468, 0.12905612587928772, 0.416943222284317, -0.4710675776004791], [-0.38724732398986816, 0.22392651438713074, 0.3024298846721649, -0.18073904514312744, -0.6310416460037231, 0.005615255329757929, 0.7493947744369507, -0.18480300903320312, 0.31278282403945923, 0.5411564111709595, -0.12946799397468567, 0.04693048819899559, -0.5017567276954651, 0.6500908732414246, 0.5120744705200195, -0.18489721417427063], [-0.29745280742645264, -0.3960288166999817, -0.3517289459705353, -1.0261327028274536, -0.009063132107257843, 0.05452245473861694, 0.32890433073043823, -0.23871368169784546, -0.24578583240509033, 0.2899991273880005, -0.9969263076782227, 0.921493411064148, 0.16409146785736084, -0.15739987790584564, 0.5825831294059753, 0.41802313923835754], [-0.2902278006076813, 0.2883557081222534, 0.1587013602256775, 0.31865230202674866, -0.4129679203033447, 1.0155270099639893, -0.16146212816238403, 0.627500057220459, -0.23859262466430664, -0.014024387113749981, -0.5899100303649902, 0.12402136623859406, 0.6146843433380127, 0.10901807993650436, -0.02172212488949299, -0.34965768456459045], [0.532050609588623, -0.09964298456907272, 0.22597384452819824, 0.34477466344833374, -0.6008268594741821, -0.021184580400586128, 0.035196248441934586, -0.11482883244752884, 0.5637012124061584, 0.7422297596931458, 0.4927848279476166, 0.16046079993247986, 0.8289288282394409, -0.47786745429039, 0.4020148813724518, 0.018771588802337646], [0.6925820112228394, -0.698424220085144, 0.05800522863864899, -0.22851157188415527, 0.24465246498584747, 0.7563299536705017, 0.37993961572647095, -0.7081295251846313, 0.3944494426250458, 0.08519604057073593, 0.28691366314888, 0.4893047511577606, 0.2205083668231964, 0.7408446669578552, 0.2691035866737366, -0.501807689666748], [0.08621201664209366, 0.6405682563781738, -0.18267327547073364, -0.24015629291534424, -0.303488165140152, 0.5703945159912109, -0.3973384499549866, -0.10309416055679321, -0.9037176370620728, -0.4770277738571167, 0.6206228733062744, -0.46496832370758057, 0.07383334636688232, 0.24131788313388824, 0.45641306042671204, 0.4657226502895355], [0.3851015567779541, -1.354209065437317, 0.65212082862854, -0.03190808370709419, 0.3519904911518097, 0.10291683673858643, 0.6220962405204773, 0.33522748947143555, -0.0007947901613079011, 0.1520119160413742, 0.7023037075996399, 0.2511257529258728, -0.9196344017982483, 0.03706088289618492, -0.064323291182518, 0.01804773509502411], [0.6774736642837524, -0.9218392372131348, 0.09494069218635559, 0.9643570780754089, 0.41711342334747314, 0.8212066888809204, 1.1659022569656372, -0.1313939392566681, 0.8996245861053467, -0.11158759891986847, -0.18818993866443634, -0.28053876757621765, 0.5751485228538513, 0.0025903969071805477, -0.08620495349168777, -0.5907347798347473], [0.7025788426399231, -0.7081777453422546, 0.2904697060585022, -0.6099849939346313, -1.2469470500946045, -0.29193058609962463, -0.3173351287841797, 0.4923515319824219, 0.12654143571853638, 0.5182251334190369, -0.5066148042678833, 0.7733055353164673, -0.37185630202293396, 0.8220899105072021, 0.192979097366333, 0.6780185699462891], [0.2296762466430664, -0.4529210329055786, -0.07717539370059967, -0.5719414949417114, 0.3324194550514221, 1.3384578227996826, -0.4229380786418915, -0.2688158452510834, 0.11054562777280807, -0.20013023912906647, -0.2749726474285126, 0.3556215465068817, 0.26650068163871765, -0.16025519371032715, -0.10328342765569687, -0.25136491656303406]], "1_weights": [[0.024628885090351105, 0.4671993851661682, 0.7140223979949951, 0.1621786504983902, 0.444543719291687, 0.5223054885864258, 0.4230140447616577, -0.6717413067817688, 0.010335520841181278, 0.28259265422821045, 0.6383672952651978, 0.5593400597572327, 0.1441510170698166, -0.0938497930765152, 0.5016027688980103, 0.0006941505707800388], [-0.3982284665107727, 0.9431365132331848, 0.7866426706314087, -0.7347809672355652, -1.2962632179260254, -0.5516833662986755, -0.7995514273643494, -0.6216607689857483, 0.14984974265098572, 0.6794846653938293, 0.12433374673128128, -0.7334890961647034, 0.5519145131111145, 0.17601123452186584, -0.2692096531391144, 0.21383871138095856], [0.013260554522275925, -0.1701173335313797, -0.3675856292247772, 0.3087179362773895, -0.13126851618289948, 0.5050216317176819, -0.18571412563323975, 0.01949600875377655, -0.39266249537467957, 0.184003546833992, 0.09836489707231522, 0.4448169469833374, -0.3408670425415039, -0.3555264174938202, 0.1342877447605133, 0.6061186194419861], [0.7965459227561951, 0.41686826944351196, -2.208610773086548, 0.017297571524977684, 0.8185490965843201, -0.02329394407570362, 0.20736047625541687, -0.18204721808433533, -0.1120961457490921, 0.08505290001630783, -0.03615123778581619, -0.2560935318470001, -0.5447192788124084, 0.4989793002605438, -1.3973157405853271, 0.349042147397995], [0.4655652940273285, -0.15472297370433807, -0.21318508684635162, -1.6171314716339111, 1.5554277896881104, -0.5530804991722107, 0.44612592458724976, -0.9257407784461975, -0.8337567448616028, -0.7097648978233337, -0.672602117061615, 0.7030102014541626, -0.12089231610298157, -5.809242248535156, -0.028369972482323647, -0.6942573189735413], [0.3796935975551605, 0.23278062045574188, -0.5131018757820129, 0.15284700691699982, -0.3902718424797058, 0.5936406850814819, 0.19649727642536163, 0.45781511068344116, -0.09433094412088394, 0.0037303876597434282, 0.1258905678987503, 0.711859941482544, 0.5738824605941772, 0.04297216236591339, -0.11529135704040527, -0.3261147141456604], [-0.40500426292419434, 0.4197450280189514, -0.6952973008155823, 0.008281072601675987, -1.7388840913772583, 0.019858796149492264, -0.1427583247423172, -0.11333261430263519, 0.12373919785022736, 0.08856242895126343, -0.2108372151851654, -0.7486222386360168, 0.18941955268383026, -0.18094240128993988, 0.16321885585784912, -0.047933902591466904], [0.1107509508728981, 1.0431592464447021, 0.7540308237075806, -0.1948089897632599, 0.775318443775177, -0.21491238474845886, 0.7172800302505493, -0.8990837335586548, -0.3499179780483246, 0.5302523970603943, 0.6923161745071411, 0.2384776473045349, -1.0090515613555908, 0.0736212506890297, -0.2838723063468933, 0.09964850544929504], [-0.11772395670413971, -0.0757007971405983, 0.5618800520896912, 0.2381991595029831, -1.1967029571533203, 0.05126006156206131, -0.4249999523162842, 0.14586278796195984, 0.06025027111172676, 0.22135886549949646, -0.3407379686832428, -0.6606703400611877, -0.20285457372665405, 0.32467108964920044, -0.07066024094820023, 0.4853781461715698], [0.3463287353515625, -0.11026745289564133, -0.2493436336517334, 0.0842914879322052, 0.013380642980337143, -0.3098394572734833, 0.43313899636268616, -0.6986488103866577, -0.24195027351379395, 0.3915208578109741, 0.2026427686214447, 0.11577527225017548, -0.37257400155067444, -0.3037871718406677, 0.02883625403046608, 0.004351316951215267], [-0.8278781175613403, -0.4744749367237091, 0.1368338167667389, 0.897704541683197, 0.3791032135486603, 0.18157914280891418, 0.009810095652937889, 0.07319971174001694, -0.362697958946228, -0.25086259841918945, 0.2256171852350235, -0.6059134006500244, 0.6070037484169006, -0.11595763266086578, 0.08217119425535202, 0.8722776770591736], [0.44678089022636414, 0.38423189520835876, 0.1648055911064148, -0.5848092436790466, 0.43067455291748047, -0.26934653520584106, 0.039778269827365875, -0.5607617497444153, 0.3955307900905609, 0.5395838618278503, -0.1777762770652771, 0.18754230439662933, 0.025085458531975746, -2.0752758979797363, 0.2580198645591736, 0.4547778367996216], [0.7768781185150146, -0.03132139518857002, 0.4917401671409607, -0.2961527109146118, 0.2667905390262604, -0.4250943958759308, -0.2895927131175995, 0.22214151918888092, 0.1968306303024292, -1.3173716068267822, 0.1336168497800827, 0.45910942554473877, 0.28727853298187256, 0.2955252230167389, 0.06406475603580475, -0.8126745223999023], [-0.19702725112438202, -0.298528254032135, 0.3776411712169647, 0.3983129858970642, -0.11629235744476318, 0.1128198578953743, -0.45208096504211426, 0.8430606126785278, 0.8226297497749329, -0.1024692952632904, -0.45254263281822205, -0.3932269215583801, 0.08128288388252258, 0.004549854435026646, 0.8078681230545044, 0.18559366464614868], [-0.20852698385715485, -0.24486376345157623, -0.013352342881262302, -0.13017861545085907, -0.11065696179866791, 0.33105993270874023, 0.12438558042049408, 0.08568578958511353, 0.26204240322113037, 0.5815017819404602, 0.4139938950538635, -0.13201722502708435, 0.15710929036140442, -0.4878935217857361, 0.21464920043945312, 0.12378384172916412], [-0.5910260677337646, -0.8368890285491943, 0.22086457908153534, 0.5724546909332275, -1.825992465019226, 0.41358116269111633, -0.977499783039093, 0.7428587079048157, 0.055221494287252426, 0.2166317254304886, 0.08156592398881912, -0.9862944483757019, 0.42127782106399536, -2.555176258087158, 0.18682190775871277, 0.11564892530441284]], "2_weights": [[0.3813944458961487, 0.6470471620559692, 0.8025258779525757], [0.3864816427230835, 0.4860588312149048, 0.6026395559310913], [-1.130078911781311, -1.2304903268814087, -1.444304347038269], [-0.0923253521323204, -0.17919032275676727, -0.8245148062705994], [2.702787399291992, 3.464383125305176, 4.281017780303955], [-0.012788268737494946, -0.4504822790622711, -0.671985387802124], [0.9676662683486938, 0.9623205661773682, 1.326450228691101], [-1.1808090209960938, -0.9986193776130676, -1.0682837963104248], [-0.9211551547050476, -0.7303025126457214, -0.18135501444339752], [0.3484831750392914, 0.642063558101654, 0.7094951868057251], [0.18743884563446045, 0.14265064895153046, 0.4787333309650421], [1.5784181356430054, 1.831210732460022, 2.03751540184021], [-0.6968478560447693, -0.7918967604637146, -1.1038398742675781], [-2.6322832107543945, -2.616997241973877, -2.79160737991333], [-0.3328251242637634, -0.4562840759754181, -0.746239960193634], [0.6719655990600586, 0.24953702092170715, 0.026669450104236603]], "0_bias": [0.19567051529884338, -0.010476265102624893, -0.10550592839717865, 0.2409217208623886, -0.1011320948600769, -0.07254470139741898, 0.0077998703345656395, 0.10557550936937332, 0.10643017292022705, 0.03732050582766533, -0.12281366437673569, -0.013865606859326363, 0.16476355493068695, 0.08118011802434921, -0.012583543546497822, -0.010668409056961536], "1_bias": [0.1281915307044983, 0.08210233598947525, 0.023044008761644363, 0.21927745640277863, 0.12408493459224701, 0.17673218250274658, 0.15259473025798798, -0.039018064737319946, -0.11740873008966446, 0.2660253047943115, 0.22124117612838745, 0.09059891849756241, -0.051324568688869476, 0.16352421045303345, 0.07265277206897736, 0.2425958663225174], "2_bias": [0.018885960802435875, 0.08725453913211823, 0.08154628425836563],"obj_num": 2}